{"learner":{"attributes":{"best_iteration":"158","best_score":"13331.711869138318"},"feature_names":["Isc Ref(Amp)","Isc Test(Amp)","Geff Reference(W/M2)","Geff Test(W/M2)","Total Solar Irradiance on Inclined Plane POA1(W/m2)","Total Solar Irradiance on Inclined Plane POA2(W/m2)","Soiling Loss Index Geff(%)","Soiling Loss Index Isc(%)","Module Surface Temperature2(degree centigrade)","Module Surface Temperature1(degree centigrade)","Temperature Reference Cell(Deg C)","Total Solar Irradiance on Horizontal Plane GHI(W/m2)"],"feature_types":["float","float","float","float","float","float","float","float","float","float","float","float"],"gradient_booster":{"model":{"gbtree_model_param":{"num_parallel_tree":"1","num_trees":"259"},"iteration_indptr":[0,1,2,3,4,5,6,7,8,9,10,11,12,13,14,15,16,17,18,19,20,21,22,23,24,25,26,27,28,29,30,31,32,33,34,35,36,37,38,39,40,41,42,43,44,45,46,47,48,49,50,51,52,53,54,55,56,57,58,59,60,61,62,63,64,65,66,67,68,69,70,71,72,73,74,75,76,77,78,79,80,81,82,83,84,85,86,87,88,89,90,91,92,93,94,95,96,97,98,99,100,101,102,103,104,105,106,107,108,109,110,111,112,113,114,115,116,117,118,119,120,121,122,123,124,125,126,127,128,129,130,131,132,133,134,135,136,137,138,139,140,141,142,143,144,145,146,147,148,149,150,151,152,153,154,155,156,157,158,159,160,161,162,163,164,165,166,167,168,169,170,171,172,173,174,175,176,177,178,179,180,181,182,183,184,185,186,187,188,189,190,191,192,193,194,195,196,197,198,199,200,201,202,203,204,205,206,207,208,209,210,211,212,213,214,215,216,217,218,219,220,221,222,223,224,225,226,227,228,229,230,231,232,233,234,235,236,237,238,239,240,241,242,243,244,245,246,247,248,249,250,251,252,253,254,255,256,257,258,259],"tree_info":[0,0,0,0,0,0,0,0,0,0,0,0,0,0,0,0,0,0,0,0,0,0,0,0,0,0,0,0,0,0,0,0,0,0,0,0,0,0,0,0,0,0,0,0,0,0,0,0,0,0,0,0,0,0,0,0,0,0,0,0,0,0,0,0,0,0,0,0,0,0,0,0,0,0,0,0,0,0,0,0,0,0,0,0,0,0,0,0,0,0,0,0,0,0,0,0,0,0,0,0,0,0,0,0,0,0,0,0,0,0,0,0,0,0,0,0,0,0,0,0,0,0,0,0,0,0,0,0,0,0,0,0,0,0,0,0,0,0,0,0,0,0,0,0,0,0,0,0,0,0,0,0,0,0,0,0,0,0,0,0,0,0,0,0,0,0,0,0,0,0,0,0,0,0,0,0,0,0,0,0,0,0,0,0,0,0,0,0,0,0,0,0,0,0,0,0,0,0,0,0,0,0,0,0,0,0,0,0,0,0,0,0,0,0,0,0,0,0,0,0,0,0,0,0,0,0,0,0,0,0,0,0,0,0,0,0,0,0,0,0,0,0,0,0,0,0,0,0,0,0,0,0,0,0,0,0,0,0,0],"trees":[{"base_weights":[1.9997793E1,-1.00785695E5,1.580872E5,-1.10059305E5,-1.3410818E4,7.782498E4,1.7314761E5,-1.1195249E5,-7.93502E4,-3.835024E4,1.0507587E4,5.4672676E4,1.0446291E5,1.4813798E5,1.8095014E5,-1.1240432E5,-1.03135375E5,-8.6966875E4,-6.930912E4,-4.89821E4,-2.4207184E4,-1.1730224E4,1.826974E4,3.551718E4,6.398401E4,9.785997E4,1.2696923E5,1.3567998E5,1.5583536E5,1.7224917E5,1.8391433E5,-3.3743599E3,-3.2843596E3,-1.0322755E5,-1.3180968E4,-9.0950625E4,-8.165811E4,-6.944658E4,8.8803305E4,-7.706456E4,-4.535443E4,-5.3996766E4,-2.0381424E4,-1.2960368E4,4.5539126E3,1.5255938E4,7.308885E4,3.185188E4,5.4535086E4,6.1781047E4,9.033759E4,8.911856E4,1.0859923E5,9.731184E4,1.3144242E5,1.4618031E5,1.2441438E5,1.6189367E5,1.44346E5,1.799188E5,1.6468472E5,1.859386E5,1.7536631E5,-3.1517246E3,-2.9731594E3,1.0784695E3,-1.3917238E3,-2.7804429E3,-2.6432085E3,-2.4569766E3,-8.595388E2,-2.19186E3,-1.9371582E3,3.1136328E3,4.329819E2,-2.0195308E3,-3.1115322E3,-1.3701532E3,2.7644895E3,-1.4384479E3,-2.8140151E3,-6.309837E2,2.5055706E3,-9.7457874E2,-1.5868216E2,2.2460353E2,9.381517E2,1.7662645E3,3.3079097E3,5.1868085E2,1.0902562E3,1.578411E3,2.466394E3,1.6146184E3,2.0679268E3,2.5712332E3,3.7489993E3,2.8202534E3,2.3989788E3,3.4830808E3,2.9858152E3,2.9889792E3,-2.2181842E2,3.3077932E3,3.9924365E3,4.4781343E3,3.4845798E3,3.7902742E3,2.2158298E3,4.9114053E3,3.5237168E3,3.984312E3,4.5395957E3,4.3284824E3,5.429239E3,4.9729243E3,4.1070723E3,3.956751E3,5.582385E3,2.2161436E3,5.357725E3],"categories":[],"categories_nodes":[],"categories_segments":[],"categories_sizes":[],"default_left":[0,0,0,0,0,0,0,0,0,0,0,0,0,0,0,0,0,0,0,0,0,0,0,0,0,0,0,0,0,0,0,0,0,0,0,0,0,0,0,0,0,0,0,0,0,0,0,0,0,0,0,0,0,0,0,0,0,0,0,0,0,0,0,0,0,0,0,0,0,0,0,0,0,0,0,0,0,0,0,0,0,0,0,0,0,0,0,0,0,0,0,0,0,0,0,0,0,0,0,0,0,0,0,0,0,0,0,0,0,0,0,0,0,0,0,0,0,0,0,0,0],"id":0,"left_children":[1,3,5,7,9,11,13,15,17,19,21,23,25,27,29,31,33,35,37,39,41,43,45,47,49,51,53,55,57,59,61,-1,-1,63,65,67,69,71,73,75,77,79,81,83,-1,85,87,89,91,93,95,97,99,101,103,105,107,109,111,113,115,117,119,-1,-1,-1,-1,-1,-1,-1,-1,-1,-1,-1,-1,-1,-1,-1,-1,-1,-1,-1,-1,-1,-1,-1,-1,-1,-1,-1,-1,-1,-1,-1,-1,-1,-1,-1,-1,-1,-1,-1,-1,-1,-1,-1,-1,-1,-1,-1,-1,-1,-1,-1,-1,-1,-1,-1,-1,-1,-1],"loss_changes":[6.043906E15,1.8766269E14,1.785273E14,1.2164153E13,1.3257268E13,1.438752E13,2.424187E13,7.7416786E11,9.241226E11,1.6348055E12,1.9585122E12,2.2251286E12,1.6001186E12,2.815351E12,2.412698E12,2.8454158E10,7.845865E10,1.3875177E11,1.2029264E11,6.2914245E11,5.312432E11,5.925795E11,1.3883343E12,2.8315274E11,4.8220655E11,7.783118E11,3.1329773E11,1.319008E12,1.2487617E12,1.3686853E12,1.1907797E12,0E0,0E0,6.212603E10,1.961527E10,1.1226055E10,3.5651584E10,8.7755325E10,4.074074E9,1.7720541E11,2.44292E11,1.2334216E11,2.8200875E11,4.3643706E11,0E0,9.918391E11,2.2493816E11,2.2357921E11,3.0720131E10,4.3778887E11,9.286032E10,1.9983342E11,2.4453212E11,7.995497E10,5.9370373E10,5.2513525E11,5.2286194E11,9.477785E11,4.8825054E11,4.2375892E11,3.4155056E11,4.104378E11,4.422038E12,0E0,0E0,0E0,0E0,0E0,0E0,0E0,0E0,0E0,0E0,0E0,0E0,0E0,0E0,0E0,0E0,0E0,0E0,0E0,0E0,0E0,0E0,0E0,0E0,0E0,0E0,0E0,0E0,0E0,0E0,0E0,0E0,0E0,0E0,0E0,0E0,0E0,0E0,0E0,0E0,0E0,0E0,0E0,0E0,0E0,0E0,0E0,0E0,0E0,0E0,0E0,0E0,0E0,0E0,0E0,0E0,0E0,0E0],"parents":[2147483647,0,0,1,1,2,2,3,3,4,4,5,5,6,6,7,7,8,8,9,9,10,10,11,11,12,12,13,13,14,14,15,15,16,16,17,17,18,18,19,19,20,20,21,21,22,22,23,23,24,24,25,25,26,26,27,27,28,28,29,29,30,30,33,33,34,34,35,35,36,36,37,37,38,38,39,39,40,40,41,41,42,42,43,43,45,45,46,46,47,47,48,48,49,49,50,50,51,51,52,52,53,53,54,54,55,55,56,56,57,57,58,58,59,59,60,60,61,61,62,62],"right_children":[2,4,6,8,10,12,14,16,18,20,22,24,26,28,30,32,34,36,38,40,42,44,46,48,50,52,54,56,58,60,62,-1,-1,64,66,68,70,72,74,76,78,80,82,84,-1,86,88,90,92,94,96,98,100,102,104,106,108,110,112,114,116,118,120,-1,-1,-1,-1,-1,-1,-1,-1,-1,-1,-1,-1,-1,-1,-1,-1,-1,-1,-1,-1,-1,-1,-1,-1,-1,-1,-1,-1,-1,-1,-1,-1,-1,-1,-1,-1,-1,-1,-1,-1,-1,-1,-1,-1,-1,-1,-1,-1,-1,-1,-1,-1,-1,-1,-1,-1,-1,-1],"split_conditions":[1.7110907E-1,-4.2672938E-1,8.376532E-1,-6.81707E-1,-2.3082618E-1,5.442982E-1,1.2745827E0,-7.220318E-1,-5.145506E-1,-3.1859812E-1,-1.311626E-1,-7.7269264E-3,9.142668E-1,1.0603684E0,1.4546664E0,-6.82953E-1,1.0060824E0,-5.6243056E-1,2.1189104E-1,-4.730118E-1,-3.6545658E-1,1.7208383E0,2.5867185E-1,6.1092454E-1,6.010252E-1,7.0762485E-1,6.5164596E-1,-7.238592E-1,1.2307737E0,1.2871628E0,1.9619496E0,-3.3743599E3,-3.2843596E3,-7.230881E-1,1.1607635E0,-5.854074E-1,-1.6024597E-1,-4.6503225E-1,9.1210485E-1,-3.2575512E-1,2.1189104E-1,7.397696E-1,3.997702E-1,-3.0691856E-1,4.5539126E3,2.2697207E-2,9.6582925E-1,-9.841777E-2,1.1993107E0,3.9790007E-1,1.436957E0,8.7466085E-1,7.086955E-1,1.2003057E0,6.697344E-1,8.1284237E-1,1.4960607E0,1.9015205E0,1.1539574E0,-1.1166782E-1,1.48279E0,2.7802635E-3,1.5988595E0,-3.1517246E3,-2.9731594E3,1.0784695E3,-1.3917238E3,-2.7804429E3,-2.6432085E3,-2.4569766E3,-8.595388E2,-2.19186E3,-1.9371582E3,3.1136328E3,4.329819E2,-2.0195308E3,-3.1115322E3,-1.3701532E3,2.7644895E3,-1.4384479E3,-2.8140151E3,-6.309837E2,2.5055706E3,-9.7457874E2,-1.5868216E2,2.2460353E2,9.381517E2,1.7662645E3,3.3079097E3,5.1868085E2,1.0902562E3,1.578411E3,2.466394E3,1.6146184E3,2.0679268E3,2.5712332E3,3.7489993E3,2.8202534E3,2.3989788E3,3.4830808E3,2.9858152E3,2.9889792E3,-2.2181842E2,3.3077932E3,3.9924365E3,4.4781343E3,3.4845798E3,3.7902742E3,2.2158298E3,4.9114053E3,3.5237168E3,3.984312E3,4.5395957E3,4.3284824E3,5.429239E3,4.9729243E3,4.1070723E3,3.956751E3,5.582385E3,2.2161436E3,5.357725E3],"split_indices":[5,11,5,1,11,5,5,11,11,11,1,11,11,0,0,2,8,11,0,1,1,11,0,3,0,5,1,7,9,10,9,0,0,1,8,11,3,11,0,5,0,8,0,5,0,11,0,11,3,5,1,10,9,7,5,9,11,7,5,10,7,8,10,0,0,0,0,0,0,0,0,0,0,0,0,0,0,0,0,0,0,0,0,0,0,0,0,0,0,0,0,0,0,0,0,0,0,0,0,0,0,0,0,0,0,0,0,0,0,0,0,0,0,0,0,0,0,0,0,0,0],"split_type":[0,0,0,0,0,0,0,0,0,0,0,0,0,0,0,0,0,0,0,0,0,0,0,0,0,0,0,0,0,0,0,0,0,0,0,0,0,0,0,0,0,0,0,0,0,0,0,0,0,0,0,0,0,0,0,0,0,0,0,0,0,0,0,0,0,0,0,0,0,0,0,0,0,0,0,0,0,0,0,0,0,0,0,0,0,0,0,0,0,0,0,0,0,0,0,0,0,0,0,0,0,0,0,0,0,0,0,0,0,0,0,0,0,0,0,0,0,0,0,0,0],"sum_hessian":[3.79305E5,2.31603E5,1.47702E5,2.0938E5,2.2223E4,2.3337E4,1.24365E5,1.97219E5,1.2161E4,1.0879E4,1.1344E4,1.2487E4,1.085E4,2.9578E4,9.4787E4,1.87594E5,9.625E3,6.911E3,5.25E3,6.209E3,4.67E3,2.935E3,8.409E3,4.086E3,8.401E3,8.393E3,2.457E3,1.1303E4,1.8275E4,2.4101E4,7.0686E4,1.82909E5,4.685E3,9.615E3,1E1,3.939E3,2.972E3,5.246E3,4E0,7.08E2,5.501E3,5.3E2,4.14E3,2.914E3,2.1E1,7.972E3,4.37E2,3.428E3,6.58E2,7.756E3,6.45E2,4.632E3,3.761E3,3.25E2,2.132E3,5.844E3,5.459E3,1.1957E4,6.318E3,1.1956E4,1.2145E4,5.7135E4,1.3551E4,6.642E3,2.973E3,4E0,6E0,2.429E3,1.51E3,2.958E3,1.4E1,3.004E3,2.242E3,3E0,1E0,5.21E2,1.87E2,5.489E3,1.2E1,4.62E2,6.8E1,4.115E3,2.5E1,8.21E2,2.093E3,5.369E3,2.603E3,3.18E2,1.19E2,8.09E2,2.619E3,6.18E2,4E1,3.674E3,4.082E3,5.72E2,7.3E1,3.013E3,1.619E3,2.052E3,1.709E3,3.18E2,7E0,1.58E2,1.974E3,5.295E3,5.49E2,5.257E3,2.02E2,1.1484E4,4.73E2,2.388E3,3.93E3,3.48E2,1.1608E4,1.1686E4,4.59E2,1.51E2,5.6984E4,4.18E2,1.3133E4],"tree_param":{"num_deleted":"0","num_feature":"12","num_nodes":"121","size_leaf_vector":"1"}},{"base_weights":[-2.3131447E1,-9.777797E4,1.5337814E5,-1.0675468E5,-1.3013699E4,7.568482E4,1.6794592E5,-1.0859394E5,-7.688483E4,-3.539423E4,1.171061E4,5.3386457E4,1.0132332E5,1.4360861E5,1.7552208E5,-1.0901196E5,-9.963136E4,-8.434706E4,-6.7113766E4,-4.7340188E4,-2.1950479E4,-1.7665256E4,1.747442E4,3.4575613E4,6.2428E4,9.4824086E4,1.2281865E5,1.3157477E5,1.5103972E5,1.6707845E5,1.7838214E5,-3.2730293E3,-3.17524E3,-9.973145E4,-1.0570035E4,-8.823416E4,-7.91445E4,3.7772512E3,-6.724771E4,-7.377915E4,-4.3878727E4,-5.166338E4,-1.8306426E4,1.319359E5,-1.9670623E4,6.951405E3,3.0960941E4,3.0354826E4,5.0883844E4,6.0283027E4,8.7183016E4,8.647631E4,1.054088E5,1.0373385E5,1.2956027E5,1.4192808E5,1.20545695E5,1.5747561E5,1.4098588E5,1.7391545E5,1.59039E5,1.8034666E5,1.7011973E5,-3.0425903E3,-2.8808557E3,1.0525862E3,-1.2501489E3,-2.6983728E3,-2.5626963E3,-2.4250552E3,-2.15269E3,-2.1236882E3,-1.8741978E3,-1.9331658E3,-3.0128127E3,-1.5092118E3,-1.1337025E3,-1.3749031E3,-2.7704976E3,-5.6706555E2,2.265904E3,-1.0331704E3,4.231914E3,-6.577001E2,1.7593639E3,-5.9274548E1,3.7383615E2,1.0292079E3,-1.4941373E3,4.974342E2,1.044606E3,1.4400878E3,2.0169824E3,1.5840975E3,2.0102596E3,2.4602363E3,3.5869536E3,2.7374214E3,2.332418E3,3.3762703E3,2.9034822E3,3.1459053E3,3.073513E2,3.8990022E3,5.8718195E2,4.3479146E3,3.381657E3,3.6704495E3,1.9894846E3,4.7849897E3,3.3899202E3,3.8839343E3,4.43713E3,4.185428E3,5.2446934E3,4.8063267E3,3.913379E3,4.0374224E3,5.4150527E3,2.077132E3,5.200256E3],"categories":[],"categories_nodes":[],"categories_segments":[],"categories_sizes":[],"default_left":[0,0,0,0,0,0,0,0,0,0,0,0,0,0,0,0,0,0,0,0,0,0,0,0,0,0,0,0,0,0,0,0,0,0,0,0,0,0,0,0,0,0,0,0,0,0,0,0,0,0,0,0,0,0,0,0,0,0,0,0,0,0,0,0,0,0,0,0,0,0,0,0,0,0,0,0,0,0,0,0,0,0,0,0,0,0,0,0,0,0,0,0,0,0,0,0,0,0,0,0,0,0,0,0,0,0,0,0,0,0,0,0,0,0,0,0,0,0,0,0,0],"id":1,"left_children":[1,3,5,7,9,11,13,15,17,19,21,23,25,27,29,31,33,35,37,39,41,43,45,47,49,51,53,55,57,59,61,-1,-1,63,65,67,69,-1,71,73,75,77,79,81,83,85,87,89,91,93,95,97,99,101,103,105,107,109,111,113,115,117,119,-1,-1,-1,-1,-1,-1,-1,-1,-1,-1,-1,-1,-1,-1,-1,-1,-1,-1,-1,-1,-1,-1,-1,-1,-1,-1,-1,-1,-1,-1,-1,-1,-1,-1,-1,-1,-1,-1,-1,-1,-1,-1,-1,-1,-1,-1,-1,-1,-1,-1,-1,-1,-1,-1,-1,-1,-1,-1],"loss_changes":[5.6858355E15,1.7621338E14,1.6701893E14,1.1496285E13,1.227246E13,1.3317402E13,2.2888954E13,7.2799696E11,8.802502E11,1.868487E12,1.7845702E12,2.118048E12,1.502601E12,2.6188563E12,2.2588844E12,4.187593E10,7.741846E10,1.32246405E11,1.446196E11,5.6078474E11,5.922952E11,5.2130434E11,1.2500903E12,2.7716223E11,4.4172942E11,7.266464E11,3.0988776E11,1.2701359E12,1.1577621E12,1.2911745E12,1.1180337E12,0E0,0E0,4.5222986E10,1.7081903E10,1.1234443E10,3.1098667E10,0E0,8.457814E10,1.7074514E11,2.1148939E11,1.3769428E11,2.7435113E11,3.9787168E10,3.0244078E11,2.4350135E11,1.0451073E12,1.9740623E11,3.591255E10,3.8633524E11,1.02306415E11,1.8701982E11,2.1475675E11,6.873363E10,8.0295756E10,4.9304882E11,5.261251E11,9.82155E11,5.489505E11,3.801717E11,3.4899965E11,3.8144678E11,4.412978E12,0E0,0E0,0E0,0E0,0E0,0E0,0E0,0E0,0E0,0E0,0E0,0E0,0E0,0E0,0E0,0E0,0E0,0E0,0E0,0E0,0E0,0E0,0E0,0E0,0E0,0E0,0E0,0E0,0E0,0E0,0E0,0E0,0E0,0E0,0E0,0E0,0E0,0E0,0E0,0E0,0E0,0E0,0E0,0E0,0E0,0E0,0E0,0E0,0E0,0E0,0E0,0E0,0E0,0E0,0E0,0E0,0E0,0E0],"parents":[2147483647,0,0,1,1,2,2,3,3,4,4,5,5,6,6,7,7,8,8,9,9,10,10,11,11,12,12,13,13,14,14,15,15,16,16,17,17,18,18,19,19,20,20,21,21,22,22,23,23,24,24,25,25,26,26,27,27,28,28,29,29,30,30,33,33,34,34,35,35,36,36,38,38,39,39,40,40,41,41,42,42,43,43,44,44,45,45,46,46,47,47,48,48,49,49,50,50,51,51,52,52,53,53,54,54,55,55,56,56,57,57,58,58,59,59,60,60,61,61,62,62],"right_children":[2,4,6,8,10,12,14,16,18,20,22,24,26,28,30,32,34,36,38,40,42,44,46,48,50,52,54,56,58,60,62,-1,-1,64,66,68,70,-1,72,74,76,78,80,82,84,86,88,90,92,94,96,98,100,102,104,106,108,110,112,114,116,118,120,-1,-1,-1,-1,-1,-1,-1,-1,-1,-1,-1,-1,-1,-1,-1,-1,-1,-1,-1,-1,-1,-1,-1,-1,-1,-1,-1,-1,-1,-1,-1,-1,-1,-1,-1,-1,-1,-1,-1,-1,-1,-1,-1,-1,-1,-1,-1,-1,-1,-1,-1,-1,-1,-1,-1,-1,-1,-1],"split_conditions":[1.7110907E-1,-4.2672938E-1,8.376532E-1,-6.81707E-1,-2.1668424E-1,5.442982E-1,1.2745827E0,-7.151454E-1,-5.145506E-1,-3.1859812E-1,-2.1127713E-1,-7.7269264E-3,8.990556E-1,1.0603684E0,1.4546664E0,-7.8127503E-1,1.0060824E0,-5.6243056E-1,-6.1961913E-1,-4.730118E-1,-3.6545658E-1,-5.6784374E-1,-5.3283986E-2,5.7838684E-1,6.010252E-1,7.0762485E-1,7.4880356E-1,-7.238592E-1,1.1393852E0,1.3601133E0,1.9619496E0,-3.2730293E3,-3.17524E3,-7.2095054E-1,1.1607635E0,-5.854074E-1,-3.445598E-1,3.7772512E3,-4.6503225E-1,-3.2575512E-1,-3.7413886E-1,7.397696E-1,3.086532E-1,-1.0263358E0,-1.3097404E-1,-1.7334911E-1,1.4022753E0,-9.841777E-2,1.0019712E0,3.9790007E-1,1.3594093E0,8.7466085E-1,7.086955E-1,1.3573753E0,1.3573753E0,8.1284237E-1,1.508733E0,1.9015205E0,1.1539574E0,-1.1166782E-1,1.48279E0,4.4477582E-2,1.5988595E0,-3.0425903E3,-2.8808557E3,1.0525862E3,-1.2501489E3,-2.6983728E3,-2.5626963E3,-2.4250552E3,-2.15269E3,-2.1236882E3,-1.8741978E3,-1.9331658E3,-3.0128127E3,-1.5092118E3,-1.1337025E3,-1.3749031E3,-2.7704976E3,-5.6706555E2,2.265904E3,-1.0331704E3,4.231914E3,-6.577001E2,1.7593639E3,-5.9274548E1,3.7383615E2,1.0292079E3,-1.4941373E3,4.974342E2,1.044606E3,1.4400878E3,2.0169824E3,1.5840975E3,2.0102596E3,2.4602363E3,3.5869536E3,2.7374214E3,2.332418E3,3.3762703E3,2.9034822E3,3.1459053E3,3.073513E2,3.8990022E3,5.8718195E2,4.3479146E3,3.381657E3,3.6704495E3,1.9894846E3,4.7849897E3,3.3899202E3,3.8839343E3,4.43713E3,4.185428E3,5.2446934E3,4.8063267E3,3.913379E3,4.0374224E3,5.4150527E3,2.077132E3,5.200256E3],"split_indices":[5,11,5,1,11,5,5,11,11,11,5,11,11,0,0,0,8,11,2,1,1,0,11,3,0,5,1,7,9,10,9,0,0,0,8,11,3,0,11,5,11,8,0,7,0,11,7,11,3,5,0,10,9,7,7,9,11,7,5,10,7,8,10,0,0,0,0,0,0,0,0,0,0,0,0,0,0,0,0,0,0,0,0,0,0,0,0,0,0,0,0,0,0,0,0,0,0,0,0,0,0,0,0,0,0,0,0,0,0,0,0,0,0,0,0,0,0,0,0,0,0],"split_type":[0,0,0,0,0,0,0,0,0,0,0,0,0,0,0,0,0,0,0,0,0,0,0,0,0,0,0,0,0,0,0,0,0,0,0,0,0,0,0,0,0,0,0,0,0,0,0,0,0,0,0,0,0,0,0,0,0,0,0,0,0,0,0,0,0,0,0,0,0,0,0,0,0,0,0,0,0,0,0,0,0,0,0,0,0,0,0,0,0,0,0,0,0,0,0,0,0,0,0,0,0,0,0,0,0,0,0,0,0,0,0,0,0,0,0,0,0,0,0,0,0],"sum_hessian":[3.79162E5,2.31585E5,1.47577E5,2.09408E5,2.2177E4,2.3303E4,1.24274E5,1.97259E5,1.2149E4,1.164E4,1.0537E4,1.2465E4,1.0838E4,2.9507E4,9.4767E4,1.88458E5,8.801E3,6.884E3,5.265E3,6.162E3,5.478E3,1.728E3,8.809E3,4.048E3,8.417E3,8.326E3,2.512E3,1.1272E4,1.8235E4,2.3993E4,7.0774E4,1.83279E5,5.179E3,8.791E3,1E1,3.931E3,2.953E3,3E0,5.262E3,7.11E2,5.451E3,5.97E2,4.881E3,2.2E1,1.706E3,4.949E3,3.86E3,3.218E3,8.3E2,7.749E3,6.68E2,4.66E3,3.666E3,6.6E2,1.852E3,5.808E3,5.464E3,1.1109E4,7.126E3,1.2955E4,1.1038E4,5.7162E4,1.3612E4,6.02E3,2.771E3,4E0,6E0,2.424E3,1.507E3,2.395E3,5.58E2,3.013E3,2.249E3,5.29E2,1.82E2,2.648E3,2.803E3,5.24E2,7.3E1,4.851E3,3E1,1E0,2.1E1,1.659E3,4.7E1,1.889E3,3.06E3,3.707E3,1.53E2,7.89E2,2.429E3,7.09E2,1.21E2,3.673E3,4.076E3,5.79E2,8.9E1,3.007E3,1.653E3,2E3,1.666E3,6.52E2,8E0,1.845E3,7E0,5.263E3,5.45E2,5.287E3,1.77E2,1.0623E4,4.86E2,2.681E3,4.445E3,3.37E2,1.2618E4,1.0599E4,4.39E2,1.96E2,5.6966E4,4.22E2,1.319E4],"tree_param":{"num_deleted":"0","num_feature":"12","num_nodes":"121","size_leaf_vector":"1"}},{"base_weights":[-5.772476E1,-9.507611E4,1.4842562E5,-1.03552164E5,-1.359304E4,7.36074E4,1.6351605E5,-1.05322055E5,-7.4376E4,-3.7782348E4,7.223181E3,4.989147E4,9.73881E4,1.4101894E5,1.7024794E5,-1.0574248E5,-9.6515305E4,-8.1657875E4,-6.512877E4,-4.9206523E4,-2.7938357E4,-1.256894E4,1.502992E4,3.2323943E4,5.917501E4,8.544408E4,1.0951033E5,1.2854254E5,1.4636247E5,1.6205948E5,1.7302973E5,-3.1748994E3,-3.0823499E3,-9.659472E4,-1.5332359E4,-8.543199E4,-7.689724E4,3.8921624E3,-6.5300836E4,-9.3387336E4,-4.746453E4,-5.193018E4,-2.3674836E4,-3.1939418E4,-3.8026208E3,1.1983311E4,6.390587E4,2.429964E4,4.130868E4,5.735229E4,8.498794E4,-1.2515633E4,8.576026E4,1.1535273E5,1.0008996E5,1.329118E5,1.1222335E5,1.5003047E5,1.3713911E5,1.6930466E5,1.5492631E5,1.7492848E5,1.650211E5,-2.9546174E3,-2.789872E3,1.0090767E3,-1.2337164E3,-2.317219E3,-2.5794155E3,-2.3140793E3,-9.2462683E2,-1.5671384E3,-1.9954476E3,-1.6502737E3,-3.1281167E3,-1.9792246E3,-1.376536E3,-1.4452598E3,-2.7774084E3,-7.2446375E2,2.4273286E3,4.318416E3,-1.0349154E3,-1.5551353E2,4.358432E3,5.275627E1,6.625306E2,1.4835424E3,2.8894883E3,8.969732E2,4.259701E2,1.7258654E3,1.1283207E3,1.5079352E3,1.907347E3,2.6191194E3,1.3213814E2,2.49239E3,-1.4274492E3,2.4020938E3,2.7425327E3,-9.006033E2,3.468883E3,2.9628872E3,3.633119E3,4.011823E3,2.686245E3,3.2366335E3,3.4912097E3,4.5834136E3,3.749612E3,3.8557952E3,4.2983096E3,4.0166501E3,5.1071416E3,4.67864E3,3.8561301E3,3.658999E3,5.251912E3,1.9784592E3,5.0446187E3],"categories":[],"categories_nodes":[],"categories_segments":[],"categories_sizes":[],"default_left":[0,0,0,0,0,0,0,0,0,0,0,0,0,0,0,0,0,0,0,0,0,0,0,0,0,0,0,0,0,0,0,0,0,0,0,0,0,0,0,0,0,0,0,0,0,0,0,0,0,0,0,0,0,0,0,0,0,0,0,0,0,0,0,0,0,0,0,0,0,0,0,0,0,0,0,0,0,0,0,0,0,0,0,0,0,0,0,0,0,0,0,0,0,0,0,0,0,0,0,0,0,0,0,0,0,0,0,0,0,0,0,0,0,0,0,0,0,0,0,0,0],"id":2,"left_children":[1,3,5,7,9,11,13,15,17,19,21,23,25,27,29,31,33,35,37,39,41,43,45,47,49,51,53,55,57,59,61,-1,-1,63,65,67,69,-1,71,73,75,77,79,81,83,85,87,89,91,93,95,97,99,101,103,105,107,109,111,113,115,117,119,-1,-1,-1,-1,-1,-1,-1,-1,-1,-1,-1,-1,-1,-1,-1,-1,-1,-1,-1,-1,-1,-1,-1,-1,-1,-1,-1,-1,-1,-1,-1,-1,-1,-1,-1,-1,-1,-1,-1,-1,-1,-1,-1,-1,-1,-1,-1,-1,-1,-1,-1,-1,-1,-1,-1,-1,-1,-1],"loss_changes":[5.354444E15,1.5983117E14,1.67191E14,1.0816472E13,1.0980247E13,1.4014579E13,1.8639621E13,7.214203E11,8.0219E11,1.132892E12,1.8112232E12,2.0282186E12,1.787604E12,1.8738808E12,2.1327197E12,3.8654706E10,5.663988E10,1.1390052E11,1.857825E11,3.547532E11,5.531807E11,5.629612E11,1.2509377E12,3.0944317E11,3.7825282E11,1.948422E11,3.2726476E11,5.9265516E11,6.515935E11,1.2175561E12,1.0471667E12,0E0,0E0,5.218553E10,1.4012895E10,1.0120856E10,3.034579E10,0E0,8.032512E10,6.7775627E10,1.2834151E11,1.2024283E11,2.3017108E11,4.696878E11,4.7104927E11,8.173257E11,2.2619501E11,1.2835855E11,1.1959953E11,3.3257475E11,9.9465036E10,7.434812E10,1.934371E11,1.5604908E11,5.396182E10,2.2559483E11,1.9941818E10,9.59187E11,2.810603E11,3.7154823E11,3.0937186E11,3.8856032E11,4.2048065E12,0E0,0E0,0E0,0E0,0E0,0E0,0E0,0E0,0E0,0E0,0E0,0E0,0E0,0E0,0E0,0E0,0E0,0E0,0E0,0E0,0E0,0E0,0E0,0E0,0E0,0E0,0E0,0E0,0E0,0E0,0E0,0E0,0E0,0E0,0E0,0E0,0E0,0E0,0E0,0E0,0E0,0E0,0E0,0E0,0E0,0E0,0E0,0E0,0E0,0E0,0E0,0E0,0E0,0E0,0E0,0E0,0E0,0E0],"parents":[2147483647,0,0,1,1,2,2,3,3,4,4,5,5,6,6,7,7,8,8,9,9,10,10,11,11,12,12,13,13,14,14,15,15,16,16,17,17,18,18,19,19,20,20,21,21,22,22,23,23,24,24,25,25,26,26,27,27,28,28,29,29,30,30,33,33,34,34,35,35,36,36,38,38,39,39,40,40,41,41,42,42,43,43,44,44,45,45,46,46,47,47,48,48,49,49,50,50,51,51,52,52,53,53,54,54,55,55,56,56,57,57,58,58,59,59,60,60,61,61,62,62],"right_children":[2,4,6,8,10,12,14,16,18,20,22,24,26,28,30,32,34,36,38,40,42,44,46,48,50,52,54,56,58,60,62,-1,-1,64,66,68,70,-1,72,74,76,78,80,82,84,86,88,90,92,94,96,98,100,102,104,106,108,110,112,114,116,118,120,-1,-1,-1,-1,-1,-1,-1,-1,-1,-1,-1,-1,-1,-1,-1,-1,-1,-1,-1,-1,-1,-1,-1,-1,-1,-1,-1,-1,-1,-1,-1,-1,-1,-1,-1,-1,-1,-1,-1,-1,-1,-1,-1,-1,-1,-1,-1,-1,-1,-1,-1,-1,-1,-1,-1,-1,-1,-1],"split_conditions":[1.5709257E-1,-4.2672938E-1,8.9573616E-1,-6.795858E-1,-2.455387E-1,5.327349E-1,1.2745827E0,-7.151454E-1,-5.145506E-1,-3.4730825E-1,-1.3097404E-1,-7.7269264E-3,7.3509824E-1,1.0338598E0,1.4546664E0,-6.82953E-1,1.0060824E0,-5.6243056E-1,-6.1961913E-1,-5.6784374E-1,-3.6151657E-1,-2.94448E-1,2.1189104E-1,2.5960258E-1,6.010252E-1,2.2697207E-2,7.086955E-1,1.095855E0,1.25312E0,1.2871628E0,1.9619496E0,-3.1748994E3,-3.0823499E3,-6.0381156E-1,1.1607635E0,-1.2564075E0,-1.6024597E-1,3.8921624E3,-1.1303838E0,-3.322335E-1,-4.9387985E-1,7.1259975E-1,3.086532E-1,-5.6784374E-1,1.7208383E0,-1.2856776E-1,7.43552E-1,6.130534E-1,-2.3596518E-1,3.8521987E-1,1.3573753E0,-1.1190542E0,6.3674456E-1,1.15540124E-1,1.0133663E0,1.9015205E0,9.705796E-1,1.4612808E0,1.1838294E0,-1.254543E-1,1.48279E0,2.7802635E-3,1.5988595E0,-2.9546174E3,-2.789872E3,1.0090767E3,-1.2337164E3,-2.317219E3,-2.5794155E3,-2.3140793E3,-9.2462683E2,-1.5671384E3,-1.9954476E3,-1.6502737E3,-3.1281167E3,-1.9792246E3,-1.376536E3,-1.4452598E3,-2.7774084E3,-7.2446375E2,2.4273286E3,4.318416E3,-1.0349154E3,-1.5551353E2,4.358432E3,5.275627E1,6.625306E2,1.4835424E3,2.8894883E3,8.969732E2,4.259701E2,1.7258654E3,1.1283207E3,1.5079352E3,1.907347E3,2.6191194E3,1.3213814E2,2.49239E3,-1.4274492E3,2.4020938E3,2.7425327E3,-9.006033E2,3.468883E3,2.9628872E3,3.633119E3,4.011823E3,2.686245E3,3.2366335E3,3.4912097E3,4.5834136E3,3.749612E3,3.8557952E3,4.2983096E3,4.0166501E3,5.1071416E3,4.67864E3,3.8561301E3,3.658999E3,5.251912E3,1.9784592E3,5.0446187E3],"split_indices":[4,11,4,0,11,4,5,11,11,11,0,11,4,4,0,2,8,11,2,0,0,4,0,5,0,11,9,10,8,10,9,0,0,2,8,9,3,0,9,4,4,8,0,0,11,11,0,8,9,4,7,7,4,11,0,7,5,11,4,10,7,8,10,0,0,0,0,0,0,0,0,0,0,0,0,0,0,0,0,0,0,0,0,0,0,0,0,0,0,0,0,0,0,0,0,0,0,0,0,0,0,0,0,0,0,0,0,0,0,0,0,0,0,0,0,0,0,0,0,0,0],"split_type":[0,0,0,0,0,0,0,0,0,0,0,0,0,0,0,0,0,0,0,0,0,0,0,0,0,0,0,0,0,0,0,0,0,0,0,0,0,0,0,0,0,0,0,0,0,0,0,0,0,0,0,0,0,0,0,0,0,0,0,0,0,0,0,0,0,0,0,0,0,0,0,0,0,0,0,0,0,0,0,0,0,0,0,0,0,0,0,0,0,0,0,0,0,0,0,0,0,0,0,0,0,0,0,0,0,0,0,0,0,0,0,0,0,0,0,0,0,0,0,0,0],"sum_hessian":[3.79513E5,2.31421E5,1.48092E5,2.09616E5,2.1805E4,2.4857E4,1.23235E5,1.97625E5,1.1991E4,1.0085E4,1.172E4,1.2447E4,1.241E4,2.8388E4,9.4847E4,1.8861E5,9.015E3,6.704E3,5.287E3,4.666E3,5.419E3,3.315E3,8.405E3,4.305E3,8.142E3,6.255E3,6.155E3,8.52E3,1.9868E4,2.4066E4,7.0781E4,1.83227E5,5.383E3,9.006E3,9E0,3.73E3,2.974E3,4E0,5.283E3,1.75E2,4.491E3,8.16E2,4.603E3,1.032E3,2.283E3,7.913E3,4.92E2,2.276E3,2.029E3,7.608E3,5.34E2,2E1,6.235E3,3.792E3,2.363E3,6.715E3,1.805E3,1.4204E4,5.664E3,1.1928E4,1.2138E4,5.7199E4,1.3582E4,5.885E3,3.121E3,3E0,6E0,2.43E2,3.487E3,2.958E3,1.6E1,4.53E2,4.83E3,4E1,1.35E2,3.5E2,4.141E3,7.49E2,6.7E1,4.583E3,2E1,1.4E1,1.018E3,2.263E3,2E1,3.933E3,3.98E3,3.42E2,1.5E2,1.463E3,8.13E2,3.74E2,1.655E3,3.562E3,4.046E3,5.19E2,1.5E1,5E0,1.5E1,3.116E3,3.119E3,7E0,3.785E3,2.228E3,1.35E2,6.589E3,1.26E2,8.96E2,9.09E2,1.2794E4,1.41E3,2.366E3,3.298E3,3.1E2,1.1618E4,1.1678E4,4.6E2,1.48E2,5.7051E4,4.17E2,1.3165E4],"tree_param":{"num_deleted":"0","num_feature":"12","num_nodes":"121","size_leaf_vector":"1"}},{"base_weights":[-1.149326E2,-9.2213445E4,1.4394408E5,-1.00460305E5,-1.3142274E4,7.1415055E4,1.5861881E5,-1.0215955E5,-7.2296914E4,-3.6615312E4,7.046215E3,4.8397645E4,9.4604875E4,1.3680966E5,1.6516742E5,-1.0256494E5,-9.358537E4,-7.927431E4,-6.335501E4,-4.794411E4,-2.6860342E4,-1.2169452E4,1.470923E4,2.9272047E4,5.649948E4,8.301762E4,1.062199E5,1.389374E5,1.0074323E5,1.5750967E5,1.6797861E5,-1.026491E5,-2.9869163E3,-9.367856E4,-9.470806E3,-8.2907125E4,-7.464437E4,3.6216624E3,-6.3483684E4,-6.995139E4,-4.454947E4,-5.4744727E4,-2.3419674E4,-1.3263528E4,1.467152E5,1.2027506E4,6.9622945E4,1.4451198E4,3.3204234E4,5.4718227E4,8.341277E4,8.692871E4,7.4885984E4,1.1192904E5,9.702092E4,1.2542807E5,1.443076E5,6.263848E4,1.2197992E5,1.6442428E5,1.5046742E5,1.6983844E5,1.6023205E5,-3.081687E3,-3.055183E3,-2.8622532E3,-2.7021216E3,1.0031062E3,-1.1629854E3,-2.5384895E3,-2.4088467E3,-2.259719E3,-1.7256478E3,-2.0102854E3,-1.7611992E3,-1.8278499E3,-3.0025906E3,-1.3420865E3,2.093489E3,-1.4902668E3,-2.7284114E3,-7.174628E2,2.3105059E3,-9.3290265E2,-1.5374335E2,3.1674487E3,4.9685005E3,8.229745E1,6.9232526E2,1.6051672E3,2.8384014E3,1.3560509E3,3.4377817E2,9.0867413E2,1.4792819E3,1.4633209E3,1.8717903E3,1.1743877E3,2.6436267E3,1.6077834E2,2.6213328E3,2.1355828E3,3.0296895E3,-8.769625E2,3.3658901E3,2.8609536E3,3.4908118E3,3.9298938E3,3.2861667E3,4.491472E3,4.0324683E3,3.25545E3,4.914363E2,3.69209E3,3.3090454E2,3.9251313E3,4.9603643E3,4.544178E3,3.7408909E3,2.622756E3,5.097857E3,1.9617223E3,4.897632E3],"categories":[],"categories_nodes":[],"categories_segments":[],"categories_sizes":[],"default_left":[0,0,0,0,0,0,0,0,0,0,0,0,0,0,0,0,0,0,0,0,0,0,0,0,0,0,0,0,0,0,0,0,0,0,0,0,0,0,0,0,0,0,0,0,0,0,0,0,0,0,0,0,0,0,0,0,0,0,0,0,0,0,0,0,0,0,0,0,0,0,0,0,0,0,0,0,0,0,0,0,0,0,0,0,0,0,0,0,0,0,0,0,0,0,0,0,0,0,0,0,0,0,0,0,0,0,0,0,0,0,0,0,0,0,0,0,0,0,0,0,0,0,0],"id":3,"left_children":[1,3,5,7,9,11,13,15,17,19,21,23,25,27,29,31,33,35,37,39,41,43,45,47,49,51,53,55,57,59,61,63,-1,65,67,69,71,-1,73,75,77,79,81,83,85,87,89,91,93,95,97,99,101,103,105,107,109,111,113,115,117,119,121,-1,-1,-1,-1,-1,-1,-1,-1,-1,-1,-1,-1,-1,-1,-1,-1,-1,-1,-1,-1,-1,-1,-1,-1,-1,-1,-1,-1,-1,-1,-1,-1,-1,-1,-1,-1,-1,-1,-1,-1,-1,-1,-1,-1,-1,-1,-1,-1,-1,-1,-1,-1,-1,-1,-1,-1,-1,-1,-1,-1],"loss_changes":[5.0333506E15,1.5090569E14,1.5745833E14,1.0021635E13,1.035844E13,1.328576E13,1.7551652E13,6.775311E11,7.3918317E11,1.1156576E12,1.7306605E12,1.9349415E12,1.6603236E12,2.167113E12,2.0105816E12,3.7446746E10,6.9147296E10,1.0643466E11,1.3160887E11,3.4613808E11,5.1996498E11,5.844564E11,1.23647E12,2.1637418E11,4.1624692E11,1.910841E11,3.1422048E11,1.9287759E12,1.2765899E12,1.2134625E12,9.698573E11,4.026532E8,0E0,4.7102034E10,1.5123182E10,9.919529E9,3.004275E10,0E0,8.4154515E10,1.6330156E11,8.966006E10,1.0485747E11,2.4273486E11,4.8301225E11,3.9613235E8,8.218964E11,1.5242481E11,7.1428555E10,1.3653351E11,3.7247726E11,1.0971827E11,1.5296627E11,1.8838716E11,1.4716135E11,6.5051558E10,6.6171856E11,1.0068007E12,1.2078324E12,1.2172709E11,3.7497078E11,3.077277E11,3.9943196E11,3.8349696E12,0E0,0E0,0E0,0E0,0E0,0E0,0E0,0E0,0E0,0E0,0E0,0E0,0E0,0E0,0E0,0E0,0E0,0E0,0E0,0E0,0E0,0E0,0E0,0E0,0E0,0E0,0E0,0E0,0E0,0E0,0E0,0E0,0E0,0E0,0E0,0E0,0E0,0E0,0E0,0E0,0E0,0E0,0E0,0E0,0E0,0E0,0E0,0E0,0E0,0E0,0E0,0E0,0E0,0E0,0E0,0E0,0E0,0E0,0E0,0E0],"parents":[2147483647,0,0,1,1,2,2,3,3,4,4,5,5,6,6,7,7,8,8,9,9,10,10,11,11,12,12,13,13,14,14,15,15,16,16,17,17,18,18,19,19,20,20,21,21,22,22,23,23,24,24,25,25,26,26,27,27,28,28,29,29,30,30,31,31,33,33,34,34,35,35,36,36,38,38,39,39,40,40,41,41,42,42,43,43,44,44,45,45,46,46,47,47,48,48,49,49,50,50,51,51,52,52,53,53,54,54,55,55,56,56,57,57,58,58,59,59,60,60,61,61,62,62],"right_children":[2,4,6,8,10,12,14,16,18,20,22,24,26,28,30,32,34,36,38,40,42,44,46,48,50,52,54,56,58,60,62,64,-1,66,68,70,72,-1,74,76,78,80,82,84,86,88,90,92,94,96,98,100,102,104,106,108,110,112,114,116,118,120,122,-1,-1,-1,-1,-1,-1,-1,-1,-1,-1,-1,-1,-1,-1,-1,-1,-1,-1,-1,-1,-1,-1,-1,-1,-1,-1,-1,-1,-1,-1,-1,-1,-1,-1,-1,-1,-1,-1,-1,-1,-1,-1,-1,-1,-1,-1,-1,-1,-1,-1,-1,-1,-1,-1,-1,-1,-1,-1,-1,-1],"split_conditions":[1.5709257E-1,-4.2672938E-1,8.9573616E-1,-6.795858E-1,-2.455387E-1,5.327349E-1,1.2745827E0,-7.151454E-1,-5.145506E-1,-3.4730825E-1,-1.3097404E-1,-2.2993093E-2,7.3509824E-1,1.2593927E0,1.465743E0,-7.8127503E-1,1.0060824E0,-5.6243056E-1,-6.396144E-1,-4.729302E-1,-4.0292713E-1,1.7208383E0,2.5867185E-1,-1.1355753E-1,6.010252E-1,9.200228E-1,7.086955E-1,1.0338598E0,1.5560787E0,1.3056744E0,1.9619496E0,-7.9935634E-1,-2.9869163E3,-7.2095054E-1,1.1607635E0,-5.854074E-1,1.2593927E0,3.6216624E3,-4.6503225E-1,-3.322335E-1,2.1189104E-1,7.1259975E-1,3.086532E-1,-2.94448E-1,-1.281902E0,-1.1355753E-1,7.43552E-1,-7.0922565E-1,6.1092454E-1,4.085781E-1,-2.1426663E0,2.2697207E-2,6.31588E-1,1.15540124E-1,9.908697E-1,1.0404099E0,1.1208159E0,1.4460354E0,1.6979679E0,-1.1166782E-1,7.9491866E-1,-1.8960255E0,1.5988595E0,-3.081687E3,-3.055183E3,-2.8622532E3,-2.7021216E3,1.0031062E3,-1.1629854E3,-2.5384895E3,-2.4088467E3,-2.259719E3,-1.7256478E3,-2.0102854E3,-1.7611992E3,-1.8278499E3,-3.0025906E3,-1.3420865E3,2.093489E3,-1.4902668E3,-2.7284114E3,-7.174628E2,2.3105059E3,-9.3290265E2,-1.5374335E2,3.1674487E3,4.9685005E3,8.229745E1,6.9232526E2,1.6051672E3,2.8384014E3,1.3560509E3,3.4377817E2,9.0867413E2,1.4792819E3,1.4633209E3,1.8717903E3,1.1743877E3,2.6436267E3,1.6077834E2,2.6213328E3,2.1355828E3,3.0296895E3,-8.769625E2,3.3658901E3,2.8609536E3,3.4908118E3,3.9298938E3,3.2861667E3,4.491472E3,4.0324683E3,3.25545E3,4.914363E2,3.69209E3,3.3090454E2,3.9251313E3,4.9603643E3,4.544178E3,3.7408909E3,2.622756E3,5.097857E3,1.9617223E3,4.897632E3],"split_indices":[4,11,4,0,11,4,5,11,11,11,0,11,4,6,0,0,8,11,3,0,0,11,0,11,0,10,9,4,6,10,9,0,0,0,8,11,6,0,11,4,0,8,0,4,6,11,0,9,3,4,6,11,11,11,0,10,9,6,3,10,6,6,10,0,0,0,0,0,0,0,0,0,0,0,0,0,0,0,0,0,0,0,0,0,0,0,0,0,0,0,0,0,0,0,0,0,0,0,0,0,0,0,0,0,0,0,0,0,0,0,0,0,0,0,0,0,0,0,0,0,0,0,0],"split_type":[0,0,0,0,0,0,0,0,0,0,0,0,0,0,0,0,0,0,0,0,0,0,0,0,0,0,0,0,0,0,0,0,0,0,0,0,0,0,0,0,0,0,0,0,0,0,0,0,0,0,0,0,0,0,0,0,0,0,0,0,0,0,0,0,0,0,0,0,0,0,0,0,0,0,0,0,0,0,0,0,0,0,0,0,0,0,0,0,0,0,0,0,0,0,0,0,0,0,0,0,0,0,0,0,0,0,0,0,0,0,0,0,0,0,0,0,0,0,0,0,0,0,0],"sum_hessian":[3.79369E5,2.3142E5,1.47949E5,2.09563E5,2.1857E4,2.4898E4,1.23051E5,1.97636E5,1.1927E4,1.0106E4,1.1751E4,1.2497E4,1.2401E4,2.8421E4,9.463E4,1.88703E5,8.933E3,6.695E3,5.232E3,4.674E3,5.432E3,3.35E3,8.401E3,3.72E3,8.777E3,6.212E3,6.189E3,2.6835E4,1.586E3,2.5426E4,6.9204E4,1.83523E5,5.18E3,8.923E3,1E1,3.742E3,2.953E3,3E0,5.229E3,6.22E2,4.052E3,5.95E2,4.837E3,3.328E3,2.2E1,8.011E3,3.9E2,7.81E2,2.939E3,8.235E3,5.42E2,4.188E3,2.024E3,3.812E3,2.377E3,7.64E3,1.9195E4,5.69E2,1.017E3,1.2818E4,1.2608E4,5.5789E4,1.3415E4,1.68076E5,1.5447E4,6.014E3,2.909E3,4E0,6E0,2.243E3,1.499E3,2.837E3,1.16E2,3.001E3,2.228E3,4.81E2,1.41E2,4.046E3,6E0,5.24E2,7.1E1,4.814E3,2.3E1,1.042E3,2.286E3,9E0,1.3E1,4.354E3,3.657E3,2.39E2,1.51E2,6.8E1,7.13E2,2.491E3,4.48E2,4.646E3,3.589E3,5.3E1,4.89E2,2.3E1,4.165E3,1.776E3,2.48E2,7E0,3.805E3,2.195E3,1.82E2,5.652E3,1.988E3,1.2401E4,6.794E3,2.85E2,2.84E2,1.007E3,1E1,3.46E2,1.2472E4,1.213E4,4.78E2,6.2E1,5.5727E4,4.15E2,1.3E4],"tree_param":{"num_deleted":"0","num_feature":"12","num_nodes":"123","size_leaf_vector":"1"}},{"base_weights":[-1.641355E0,-8.945617E4,1.3970703E5,-9.744354E4,-1.263234E4,6.946158E4,1.5385973E5,-9.910316E4,-7.003444E4,-3.2519754E4,9.973375E3,4.7066426E4,9.1777336E4,1.3301967E5,1.6031653E5,-9.949526E4,-9.07148E4,-7.688976E4,-6.1366824E4,-4.3388812E4,-2.0002602E4,-1.8018307E4,1.522045E4,2.865121E4,5.4854516E4,8.050695E4,1.030547E5,1.3503269E5,9.81204E4,1.5263016E5,1.6284898E5,-2.987444E3,-2.8991982E3,-9.080273E4,-1.1939286E4,-8.041861E4,-7.2396016E4,3.3909353E3,-6.1487188E4,-6.708432E4,-4.0082188E4,-4.2171746E4,-1.606523E4,4.2472705E3,-1.9607953E4,1.2903434E4,6.722944E4,2.5176465E4,4.4847566E4,5.3097145E4,8.09386E4,8.711471E4,7.6117914E4,1.08570914E5,9.434406E4,1.2251247E5,1.4048367E5,6.219926E4,1.1849463E5,1.6380383E5,1.4823811E5,1.6463673E5,1.5599647E5,-2.7754783E3,-2.6213928E3,9.790316E2,-1.2621603E3,-2.173914E3,-2.4284878E3,-2.2216775E3,-1.9513091E3,-1.4569279E3,-1.8805646E3,-1.7536044E3,-2.7666858E3,-1.211686E3,2.4609722E3,-8.09667E2,-1.5361324E3,-5.343774E2,3.1232303E2,-1.2281774E3,-3.99361E2,2.6307808E1,5.863289E2,1.5659983E3,2.8331133E3,3.3177618E2,8.747543E2,1.177389E3,1.5775642E3,1.3847292E3,1.7876823E3,1.0090431E3,2.5812415E3,2.6441238E3,9.7018854E2,-1.6567634E3,2.2945188E3,3.3323743E3,2.8488948E3,2.7860344E3,3.3886758E3,3.852544E3,3.249394E3,4.36949E3,3.9163982E3,3.190249E3,4.886936E2,2.7392062E2,3.590477E3,2.710056E3,4.9271904E3,3.2378179E3,4.463921E3,2.6072231E3,4.9417183E3,2.0365394E3,4.757519E3],"categories":[],"categories_nodes":[],"categories_segments":[],"categories_sizes":[],"default_left":[0,0,0,0,0,0,0,0,0,0,0,0,0,0,0,0,0,0,0,0,0,0,0,0,0,0,0,0,0,0,0,0,0,0,0,0,0,0,0,0,0,0,0,0,0,0,0,0,0,0,0,0,0,0,0,0,0,0,0,0,0,0,0,0,0,0,0,0,0,0,0,0,0,0,0,0,0,0,0,0,0,0,0,0,0,0,0,0,0,0,0,0,0,0,0,0,0,0,0,0,0,0,0,0,0,0,0,0,0,0,0,0,0,0,0,0,0,0,0],"id":4,"left_children":[1,3,5,7,9,11,13,15,17,19,21,23,25,27,29,31,33,35,37,39,41,43,45,47,49,51,53,55,57,59,61,-1,-1,63,65,67,69,-1,71,73,75,77,79,-1,81,83,85,87,89,91,93,95,97,99,101,103,105,107,109,111,113,115,117,-1,-1,-1,-1,-1,-1,-1,-1,-1,-1,-1,-1,-1,-1,-1,-1,-1,-1,-1,-1,-1,-1,-1,-1,-1,-1,-1,-1,-1,-1,-1,-1,-1,-1,-1,-1,-1,-1,-1,-1,-1,-1,-1,-1,-1,-1,-1,-1,-1,-1,-1,-1,-1,-1,-1,-1],"loss_changes":[4.741455E15,1.4192545E14,1.4722074E14,9.523285E12,9.793741E12,1.2407842E13,1.6564884E13,6.4075543E11,7.062327E11,1.5758126E12,1.4978061E12,1.7765415E12,1.5727046E12,2.0354454E12,1.806839E12,3.6909875E10,6.0104376E10,1.0005932E11,1.17968994E11,4.8325093E11,4.6963084E11,4.1122975E11,1.0339147E12,2.0636867E11,3.950552E11,1.739336E11,2.8833743E11,1.8643178E12,1.1592228E12,1.1209194E12,8.411425E11,0E0,0E0,4.3654316E10,1.6147384E10,9.894363E9,3.1148999E10,0E0,7.881097E10,1.5907003E11,2.0767415E11,1.0997714E11,2.1193045E11,0E0,2.1366368E11,6.566444E11,1.4473416E11,1.7045914E11,2.6108494E10,3.6510997E11,1.2938301E11,1.3596885E11,1.8446759E11,1.19080485E11,5.591846E10,6.879665E11,9.666025E11,1.1716421E12,1.3090318E11,1.9570622E11,3.6181744E11,3.6601174E11,3.3317538E12,0E0,0E0,0E0,0E0,0E0,0E0,0E0,0E0,0E0,0E0,0E0,0E0,0E0,0E0,0E0,0E0,0E0,0E0,0E0,0E0,0E0,0E0,0E0,0E0,0E0,0E0,0E0,0E0,0E0,0E0,0E0,0E0,0E0,0E0,0E0,0E0,0E0,0E0,0E0,0E0,0E0,0E0,0E0,0E0,0E0,0E0,0E0,0E0,0E0,0E0,0E0,0E0,0E0,0E0,0E0,0E0],"parents":[2147483647,0,0,1,1,2,2,3,3,4,4,5,5,6,6,7,7,8,8,9,9,10,10,11,11,12,12,13,13,14,14,15,15,16,16,17,17,18,18,19,19,20,20,21,21,22,22,23,23,24,24,25,25,26,26,27,27,28,28,29,29,30,30,33,33,34,34,35,35,36,36,38,38,39,39,40,40,41,41,42,42,44,44,45,45,46,46,47,47,48,48,49,49,50,50,51,51,52,52,53,53,54,54,55,55,56,56,57,57,58,58,59,59,60,60,61,61,62,62],"right_children":[2,4,6,8,10,12,14,16,18,20,22,24,26,28,30,32,34,36,38,40,42,44,46,48,50,52,54,56,58,60,62,-1,-1,64,66,68,70,-1,72,74,76,78,80,-1,82,84,86,88,90,92,94,96,98,100,102,104,106,108,110,112,114,116,118,-1,-1,-1,-1,-1,-1,-1,-1,-1,-1,-1,-1,-1,-1,-1,-1,-1,-1,-1,-1,-1,-1,-1,-1,-1,-1,-1,-1,-1,-1,-1,-1,-1,-1,-1,-1,-1,-1,-1,-1,-1,-1,-1,-1,-1,-1,-1,-1,-1,-1,-1,-1,-1,-1,-1,-1],"split_conditions":[1.5709257E-1,-4.2672938E-1,8.9573616E-1,-6.795858E-1,-2.1668424E-1,5.327349E-1,1.281209E0,-7.693983E-1,-5.145506E-1,-3.1859812E-1,-2.1852861E-1,-2.2993093E-2,7.3509824E-1,1.2593927E0,1.4546664E0,-7.539761E-1,1.0060824E0,-5.6243056E-1,-6.690621E-1,-4.729302E-1,-3.267977E-1,-5.657801E-1,2.5867185E-1,5.7838684E-1,6.010252E-1,2.3488522E-1,6.869636E-1,1.0441376E0,1.5560787E0,5.3112936E-1,1.9408811E0,-2.987444E3,-2.8991982E3,-7.2095054E-1,1.1607635E0,-1.2535225E0,-3.445598E-1,3.3909353E3,-1.1286237E0,-3.322335E-1,2.1189104E-1,-6.679645E-1,4.4534364E-1,4.2472705E3,-3.508997E-1,-1.4306764E-1,8.141356E-1,-1.1355753E-1,8.286067E-1,3.8521987E-1,-2.1426663E0,1.4022753E0,2.2697207E-2,6.85498E-1,9.908697E-1,8.671445E-1,1.2110502E0,1.4460354E0,-4.6971887E-1,6.679716E-2,1.0834458E0,-1.8960255E0,1.5988595E0,-2.7754783E3,-2.6213928E3,9.790316E2,-1.2621603E3,-2.173914E3,-2.4284878E3,-2.2216775E3,-1.9513091E3,-1.4569279E3,-1.8805646E3,-1.7536044E3,-2.7666858E3,-1.211686E3,2.4609722E3,-8.09667E2,-1.5361324E3,-5.343774E2,3.1232303E2,-1.2281774E3,-3.99361E2,2.6307808E1,5.863289E2,1.5659983E3,2.8331133E3,3.3177618E2,8.747543E2,1.177389E3,1.5775642E3,1.3847292E3,1.7876823E3,1.0090431E3,2.5812415E3,2.6441238E3,9.7018854E2,-1.6567634E3,2.2945188E3,3.3323743E3,2.8488948E3,2.7860344E3,3.3886758E3,3.852544E3,3.249394E3,4.36949E3,3.9163982E3,3.190249E3,4.886936E2,2.7392062E2,3.590477E3,2.710056E3,4.9271904E3,3.2378179E3,4.463921E3,2.6072231E3,4.9417183E3,2.0365394E3,4.757519E3],"split_indices":[4,11,4,0,11,4,5,4,11,11,4,11,4,6,0,11,8,11,2,0,0,5,0,3,0,6,8,4,6,2,8,0,0,0,8,8,3,0,8,4,0,7,3,0,4,11,0,11,3,4,6,7,11,6,0,8,10,6,10,8,0,6,10,0,0,0,0,0,0,0,0,0,0,0,0,0,0,0,0,0,0,0,0,0,0,0,0,0,0,0,0,0,0,0,0,0,0,0,0,0,0,0,0,0,0,0,0,0,0,0,0,0,0,0,0,0,0,0,0],"split_type":[0,0,0,0,0,0,0,0,0,0,0,0,0,0,0,0,0,0,0,0,0,0,0,0,0,0,0,0,0,0,0,0,0,0,0,0,0,0,0,0,0,0,0,0,0,0,0,0,0,0,0,0,0,0,0,0,0,0,0,0,0,0,0,0,0,0,0,0,0,0,0,0,0,0,0,0,0,0,0,0,0,0,0,0,0,0,0,0,0,0,0,0,0,0,0,0,0,0,0,0,0,0,0,0,0,0,0,0,0,0,0,0,0,0,0,0,0,0,0],"sum_hessian":[3.79388E5,2.31293E5,1.48095E5,2.0951E5,2.1783E4,2.4835E4,1.2326E5,1.97546E5,1.1964E4,1.1588E4,1.0195E4,1.2397E4,1.2438E4,2.9161E4,9.4099E4,1.88714E5,8.832E3,6.676E3,5.288E3,6.201E3,5.387E3,1.609E3,8.586E3,3.686E3,8.711E3,6.225E3,6.213E3,2.7568E4,1.593E3,2.3335E4,7.0764E4,1.8315E5,5.564E3,8.822E3,1E1,3.73E3,2.946E3,3E0,5.285E3,7.57E2,5.444E3,8.11E2,4.576E3,1.5E1,1.594E3,8.221E3,3.65E2,3.037E3,6.49E2,8.164E3,5.47E2,2.477E3,3.748E3,3.797E3,2.416E3,8.369E3,1.9199E4,5.78E2,1.015E3,6.574E3,1.6761E4,5.6104E4,1.466E4,5.862E3,2.96E3,4E0,6E0,2.42E2,3.488E3,2.396E3,5.5E2,4.52E2,4.833E3,5.66E2,1.91E2,5.431E3,1.3E1,3.04E2,5.07E2,4.293E3,2.83E2,3.62E2,1.232E3,2.925E3,5.296E3,2.37E2,1.28E2,6.69E2,2.368E3,3.8E2,2.69E2,3.95E3,4.214E3,5.4E1,4.93E2,2.431E3,4.6E1,1E1,3.738E3,3.2E3,5.97E2,2.244E3,1.72E2,5.905E3,2.464E3,1.2623E4,6.576E3,2.94E2,2.84E2,1.1E1,1.004E3,4E1,6.534E3,2.32E2,1.6529E4,6.4E1,5.604E4,4.19E2,1.4241E4],"tree_param":{"num_deleted":"0","num_feature":"12","num_nodes":"119","size_leaf_vector":"1"}},{"base_weights":[-4.122102E1,-8.672018E4,1.3555011E5,-9.436912E4,-1.0445654E4,6.7314734E4,1.4920339E5,-9.612565E4,-6.6988E4,-2.976807E4,1.0018387E4,4.5606926E4,8.896614E4,1.2829558E5,1.5526955E5,-9.652389E4,-8.846168E4,-7.457892E4,-5.850619E4,-4.0400953E4,-1.9260188E4,-1.5342822E4,1.5525527E4,2.9680021E4,5.4028047E4,7.7913695E4,1.0005976E5,1.3032329E5,9.513039E4,1.4737333E5,1.5781375E5,-2.8978313E3,-2.827447E3,-8.8539164E4,-1.1606844E4,-7.803535E4,-7.0205234E4,1.06758234E5,-5.8661914E4,-6.517275E4,-3.7292824E4,-4.16169E4,-1.5363327E4,1.2345628E5,-1.7178834E4,1.3214094E4,6.8006695E4,2.2208336E4,3.810675E4,5.225055E4,7.903504E4,7.724774E4,1.1940376E5,1.0459514E5,8.993911E4,1.18850055E5,1.3573431E5,5.9838953E4,1.15046234E5,1.58439E5,1.4315733E5,1.5953169E5,1.5040733E5,-2.7116406E3,-2.551193E3,7.591238E2,-1.3975001E3,-2.4103901E3,-2.2905276E3,-2.154017E3,-1.8950044E3,3.6620767E3,4.5304944E2,-1.8846329E3,-1.6354508E3,-1.6899681E3,-2.655849E3,-1.1259918E3,2.4424258E3,-1.1208207E3,-2.4494578E3,-4.7803683E2,1.9522522E3,-1.0500328E3,3.9560254E3,-1.2210405E3,-3.3392575E2,9.3903336E1,6.602367E2,1.6066276E3,2.796564E3,8.36114E2,4.0616074E2,1.600996E3,1.0343326E3,1.3959254E3,1.7718396E3,1.1192373E3,2.4983213E3,2.4594077E3,2.123147E3,3.6709028E3,-3.9401968E2,-9.3053894E2,3.1447869E3,2.6218608E3,3.145364E3,3.7445017E3,3.1635515E3,4.247857E3,3.8103994E3,3.1142153E3,4.7448563E2,8.6080054E2,3.4995544E3,4.758187E3,-5.234724E2,4.438937E3,4.154689E3,2.5284595E3,4.788528E3,2.9861235E3,4.5942603E3],"categories":[],"categories_nodes":[],"categories_segments":[],"categories_sizes":[],"default_left":[0,0,0,0,0,0,0,0,0,0,0,0,0,0,0,0,0,0,0,0,0,0,0,0,0,0,0,0,0,0,0,0,0,0,0,0,0,0,0,0,0,0,0,0,0,0,0,0,0,0,0,0,0,0,0,0,0,0,0,0,0,0,0,0,0,0,0,0,0,0,0,0,0,0,0,0,0,0,0,0,0,0,0,0,0,0,0,0,0,0,0,0,0,0,0,0,0,0,0,0,0,0,0,0,0,0,0,0,0,0,0,0,0,0,0,0,0,0,0,0,0,0,0],"id":5,"left_children":[1,3,5,7,9,11,13,15,17,19,21,23,25,27,29,31,33,35,37,39,41,43,45,47,49,51,53,55,57,59,61,-1,-1,63,65,67,69,71,73,75,77,79,81,83,85,87,89,91,93,95,97,99,101,103,105,107,109,111,113,115,117,119,121,-1,-1,-1,-1,-1,-1,-1,-1,-1,-1,-1,-1,-1,-1,-1,-1,-1,-1,-1,-1,-1,-1,-1,-1,-1,-1,-1,-1,-1,-1,-1,-1,-1,-1,-1,-1,-1,-1,-1,-1,-1,-1,-1,-1,-1,-1,-1,-1,-1,-1,-1,-1,-1,-1,-1,-1,-1,-1,-1,-1],"loss_changes":[4.4604433E15,1.3507028E14,1.37872745E14,1.0113843E13,8.344339E12,1.1594717E13,1.5621601E13,5.951214E11,8.125499E11,1.2119305E12,1.431693E12,1.6514548E12,1.5069379E12,1.853077E12,1.8970334E12,2.0937966E10,5.7210307E10,9.568885E10,1.605978E11,4.128747E11,4.751284E11,4.68217E11,1.0206254E12,2.6768599E11,3.541817E11,1.6189594E11,2.7343926E11,1.6066198E12,1.1190959E12,1.0647157E12,8.957691E11,0E0,0E0,5.5524196E10,1.5379931E10,8.3802194E9,2.8745662E10,6.576673E9,9.9923E10,1.1889751E11,1.3979825E11,1.3496012E11,2.1479267E11,3.6603265E10,2.5647514E11,7.1528455E11,1.24361245E11,1.1071036E11,1.0908179E11,2.9054992E11,9.124499E10,1.8109327E11,3.9264977E10,1.3641554E11,6.3411585E10,6.5717194E11,8.8956155E11,1.121008E12,1.3848963E11,1.9162936E11,3.58462E11,3.656091E11,1.8803233E12,0E0,0E0,0E0,0E0,0E0,0E0,0E0,0E0,0E0,0E0,0E0,0E0,0E0,0E0,0E0,0E0,0E0,0E0,0E0,0E0,0E0,0E0,0E0,0E0,0E0,0E0,0E0,0E0,0E0,0E0,0E0,0E0,0E0,0E0,0E0,0E0,0E0,0E0,0E0,0E0,0E0,0E0,0E0,0E0,0E0,0E0,0E0,0E0,0E0,0E0,0E0,0E0,0E0,0E0,0E0,0E0,0E0,0E0,0E0,0E0],"parents":[2147483647,0,0,1,1,2,2,3,3,4,4,5,5,6,6,7,7,8,8,9,9,10,10,11,11,12,12,13,13,14,14,15,15,16,16,17,17,18,18,19,19,20,20,21,21,22,22,23,23,24,24,25,25,26,26,27,27,28,28,29,29,30,30,33,33,34,34,35,35,36,36,37,37,38,38,39,39,40,40,41,41,42,42,43,43,44,44,45,45,46,46,47,47,48,48,49,49,50,50,51,51,52,52,53,53,54,54,55,55,56,56,57,57,58,58,59,59,60,60,61,61,62,62],"right_children":[2,4,6,8,10,12,14,16,18,20,22,24,26,28,30,32,34,36,38,40,42,44,46,48,50,52,54,56,58,60,62,-1,-1,64,66,68,70,72,74,76,78,80,82,84,86,88,90,92,94,96,98,100,102,104,106,108,110,112,114,116,118,120,122,-1,-1,-1,-1,-1,-1,-1,-1,-1,-1,-1,-1,-1,-1,-1,-1,-1,-1,-1,-1,-1,-1,-1,-1,-1,-1,-1,-1,-1,-1,-1,-1,-1,-1,-1,-1,-1,-1,-1,-1,-1,-1,-1,-1,-1,-1,-1,-1,-1,-1,-1,-1,-1,-1,-1,-1,-1,-1,-1,-1],"split_conditions":[1.5709257E-1,-4.1312787E-1,8.9573616E-1,-6.795858E-1,-2.1668424E-1,5.327349E-1,1.2671297E0,-7.220318E-1,-5.145506E-1,-3.1859812E-1,-1.9967628E-1,-7.7269264E-3,7.3509824E-1,1.2593927E0,1.444163E0,-7.8527784E-1,1.0060824E0,-5.6243056E-1,-5.963819E-1,-4.729302E-1,-3.267977E-1,-5.6784374E-1,2.5867185E-1,2.5960258E-1,6.010252E-1,1.1467495E0,9.08583E-1,1.0441376E0,1.5560787E0,5.3112936E-1,1.9619496E0,-2.8978313E3,-2.827447E3,-6.1206263E-1,1.2157049E0,-5.96444E-1,-3.445598E-1,-6.1961913E-1,-4.6503225E-1,-3.0691856E-1,2.1189104E-1,7.397696E-1,3.086532E-1,1.9489382E-1,-3.508997E-1,-1.1355753E-1,8.141356E-1,4.241945E-1,-2.3596518E-1,4.085781E-1,-2.1426663E0,6.623609E-1,1.4022753E0,1.15540124E-1,7.208015E-1,8.1284237E-1,9.761885E-1,1.4460354E0,-3.9887E-1,1.4022753E0,1.4368051E0,-1.8960255E0,1.9583166E0,-2.7116406E3,-2.551193E3,7.591238E2,-1.3975001E3,-2.4103901E3,-2.2905276E3,-2.154017E3,-1.8950044E3,3.6620767E3,4.5304944E2,-1.8846329E3,-1.6354508E3,-1.6899681E3,-2.655849E3,-1.1259918E3,2.4424258E3,-1.1208207E3,-2.4494578E3,-4.7803683E2,1.9522522E3,-1.0500328E3,3.9560254E3,-1.2210405E3,-3.3392575E2,9.3903336E1,6.602367E2,1.6066276E3,2.796564E3,8.36114E2,4.0616074E2,1.600996E3,1.0343326E3,1.3959254E3,1.7718396E3,1.1192373E3,2.4983213E3,2.4594077E3,2.123147E3,3.6709028E3,-3.9401968E2,-9.3053894E2,3.1447869E3,2.6218608E3,3.145364E3,3.7445017E3,3.1635515E3,4.247857E3,3.8103994E3,3.1142153E3,4.7448563E2,8.6080054E2,3.4995544E3,4.758187E3,-5.234724E2,4.438937E3,4.154689E3,2.5284595E3,4.788528E3,2.9861235E3,4.5942603E3],"split_indices":[4,11,4,0,11,4,5,11,11,11,4,11,4,6,0,0,8,11,3,0,0,0,0,5,0,0,9,4,6,2,9,0,0,3,8,11,3,2,11,5,0,8,0,6,4,11,0,8,9,4,6,8,7,11,11,9,9,6,8,7,9,6,8,0,0,0,0,0,0,0,0,0,0,0,0,0,0,0,0,0,0,0,0,0,0,0,0,0,0,0,0,0,0,0,0,0,0,0,0,0,0,0,0,0,0,0,0,0,0,0,0,0,0,0,0,0,0,0,0,0,0,0,0],"split_type":[0,0,0,0,0,0,0,0,0,0,0,0,0,0,0,0,0,0,0,0,0,0,0,0,0,0,0,0,0,0,0,0,0,0,0,0,0,0,0,0,0,0,0,0,0,0,0,0,0,0,0,0,0,0,0,0,0,0,0,0,0,0,0,0,0,0,0,0,0,0,0,0,0,0,0,0,0,0,0,0,0,0,0,0,0,0,0,0,0,0,0,0,0,0,0,0,0,0,0,0,0,0,0,0,0,0,0,0,0,0,0,0,0,0,0,0,0,0,0,0,0,0,0],"sum_hessian":[3.79516E5,2.31516E5,1.48E5,2.10415E5,2.1101E4,2.4677E4,1.23323E5,1.97728E5,1.2687E4,1.0853E4,1.0248E4,1.2324E4,1.2353E4,2.7739E4,9.5584E4,1.8795E5,9.778E3,6.691E3,5.996E3,5.393E3,5.46E3,1.828E3,8.42E3,4.264E3,8.06E3,6.192E3,6.161E3,2.6138E4,1.601E3,2.3307E4,7.2277E4,1.82263E5,5.687E3,9.768E3,1E1,3.728E3,2.963E3,5E0,5.991E3,5.99E2,4.794E3,8.09E2,4.651E3,2.3E1,1.805E3,8.066E3,3.54E2,2.262E3,2.002E3,7.528E3,5.32E2,6.097E3,9.5E1,4.248E3,1.913E3,8.384E3,1.7754E4,5.79E2,1.022E3,6.42E3,1.6887E4,5.8652E4,1.3625E4,6.375E3,3.393E3,5E0,5E0,1.552E3,2.176E3,2.408E3,5.55E2,4E0,1E0,2.984E3,3.007E3,4.37E2,1.62E2,4.785E3,9E0,7.33E2,7.6E1,4.619E3,3.2E1,1E0,2.2E1,3.68E2,1.437E3,3.758E3,4.308E3,2.27E2,1.27E2,1.367E3,8.95E2,3.82E2,1.62E3,4.096E3,3.432E3,5E1,4.82E2,3.516E3,2.581E3,9.3E1,2E0,7E0,4.241E3,1.64E3,2.73E2,5.795E3,2.589E3,1.0609E4,7.145E3,2.89E2,2.9E2,1.9E1,1.003E3,6.414E3,6E0,8.304E3,8.583E3,6.8E1,5.8584E4,6.97E2,1.2928E4],"tree_param":{"num_deleted":"0","num_feature":"12","num_nodes":"123","size_leaf_vector":"1"}},{"base_weights":[-7.508593E1,-8.4144234E4,1.314382E5,-9.166746E4,-1.2001429E4,6.664249E4,1.4498295E5,-9.3234914E4,-6.585863E4,-3.2061236E4,7.8168853E3,4.4454934E4,8.7437336E4,1.261012E5,1.5091156E5,-9.36219E4,-8.5696805E4,-7.232345E4,-5.762634E4,-4.230062E4,-2.1834783E4,-1.8038781E4,1.2691568E4,2.7090912E4,5.1747582E4,7.703239E4,9.9263055E4,1.2798192E5,9.267802E4,1.4400556E5,1.5329844E5,-9.368698E4,-2.7343076E3,-8.577487E4,-9.406024E3,-7.5677414E4,-6.810284E4,3.574187E3,-5.7782758E4,-6.4682E4,-3.9140754E4,-4.4977508E4,-1.8378076E4,1.2056672E5,-1.9797066E4,-3.375229E2,2.099125E4,1.3393152E4,3.0683021E4,5.00953E4,7.619439E4,7.175775E4,8.357038E4,1.0570308E5,9.153682E4,1.16217805E5,1.3249164E5,5.7585645E4,1.1163966E5,1.542795E5,1.3986758E5,1.5500328E5,1.4621536E5,-2.8126604E3,-2.787646E3,-2.624162E3,-2.4671162E3,9.3731586E2,-1.1129382E3,-2.0337632E3,-2.2851892E3,-2.0880825E3,-1.8672894E3,-1.3664788E3,-1.7703037E3,-1.6902633E3,-2.7083093E3,-1.3602189E3,-1.0445077E3,-1.2053928E3,-2.3595408E3,-5.663027E2,2.2886548E3,-1.0342823E3,3.887743E3,-6.3328094E2,2.791988E3,-1.91964E3,2.6608992E1,6.9143036E2,-1.2391855E3,1.1985466E3,3.1576346E2,1.3182412E3,8.2014185E2,1.286411E3,1.6558188E3,9.3782916E2,2.4276956E3,2.0788904E3,2.552E3,-5.3912225E2,2.51606E3,3.1892417E3,1.762004E3,-1.6812313E3,2.7561562E3,3.6601924E3,3.096712E3,4.1141577E3,3.6846692E3,3.6691042E3,8.7870496E2,1.4514318E3,3.4096145E3,2.464258E3,4.6394336E3,4.347899E3,4.0613174E3,2.3406357E3,4.652793E3,1.8087239E3,4.468638E3],"categories":[],"categories_nodes":[],"categories_segments":[],"categories_sizes":[],"default_left":[0,0,0,0,0,0,0,0,0,0,0,0,0,0,0,0,0,0,0,0,0,0,0,0,0,0,0,0,0,0,0,0,0,0,0,0,0,0,0,0,0,0,0,0,0,0,0,0,0,0,0,0,0,0,0,0,0,0,0,0,0,0,0,0,0,0,0,0,0,0,0,0,0,0,0,0,0,0,0,0,0,0,0,0,0,0,0,0,0,0,0,0,0,0,0,0,0,0,0,0,0,0,0,0,0,0,0,0,0,0,0,0,0,0,0,0,0,0,0,0,0,0,0],"id":6,"left_children":[1,3,5,7,9,11,13,15,17,19,21,23,25,27,29,31,33,35,37,39,41,43,45,47,49,51,53,55,57,59,61,63,-1,65,67,69,71,-1,73,75,77,79,81,83,85,87,89,91,93,95,97,99,101,103,105,107,109,111,113,115,117,119,121,-1,-1,-1,-1,-1,-1,-1,-1,-1,-1,-1,-1,-1,-1,-1,-1,-1,-1,-1,-1,-1,-1,-1,-1,-1,-1,-1,-1,-1,-1,-1,-1,-1,-1,-1,-1,-1,-1,-1,-1,-1,-1,-1,-1,-1,-1,-1,-1,-1,-1,-1,-1,-1,-1,-1,-1,-1,-1,-1,-1],"loss_changes":[4.1955222E15,1.2564041E14,1.29863705E14,8.474239E12,8.6915227E12,1.1801614E13,1.3682155E13,5.685463E11,6.3479113E11,1.136778E12,1.386397E12,1.5664006E12,1.6174243E12,1.8270053E12,1.5131707E12,2.1743272E10,5.6740545E10,8.999089E10,1.5304072E11,3.8134927E11,4.342009E11,4.276572E11,1.0007097E12,1.7987194E11,3.4832856E11,2.3643711E11,2.9772428E11,1.4537458E12,1.0329407E12,9.961975E11,8.129568E11,8.053064E8,0E0,5.075108E10,1.354149E10,9.435087E9,2.1911044E10,0E0,7.6621545E10,1.3793126E11,1.2599637E11,1.1090015E11,2.2487722E11,3.5250536E10,2.5730685E11,2.807942E11,7.251598E11,5.76908E10,1.2749845E11,2.981437E11,1.1433463E11,1.2180049E11,9.639979E10,8.93177E10,1.4439101E11,5.652328E11,8.823138E11,1.0035897E12,1.23571536E11,1.6966799E11,3.6856188E11,3.7352794E11,3.1551232E12,0E0,0E0,0E0,0E0,0E0,0E0,0E0,0E0,0E0,0E0,0E0,0E0,0E0,0E0,0E0,0E0,0E0,0E0,0E0,0E0,0E0,0E0,0E0,0E0,0E0,0E0,0E0,0E0,0E0,0E0,0E0,0E0,0E0,0E0,0E0,0E0,0E0,0E0,0E0,0E0,0E0,0E0,0E0,0E0,0E0,0E0,0E0,0E0,0E0,0E0,0E0,0E0,0E0,0E0,0E0,0E0,0E0,0E0,0E0,0E0],"parents":[2147483647,0,0,1,1,2,2,3,3,4,4,5,5,6,6,7,7,8,8,9,9,10,10,11,11,12,12,13,13,14,14,15,15,16,16,17,17,18,18,19,19,20,20,21,21,22,22,23,23,24,24,25,25,26,26,27,27,28,28,29,29,30,30,31,31,33,33,34,34,35,35,36,36,38,38,39,39,40,40,41,41,42,42,43,43,44,44,45,45,46,46,47,47,48,48,49,49,50,50,51,51,52,52,53,53,54,54,55,55,56,56,57,57,58,58,59,59,60,60,61,61,62,62],"right_children":[2,4,6,8,10,12,14,16,18,20,22,24,26,28,30,32,34,36,38,40,42,44,46,48,50,52,54,56,58,60,62,64,-1,66,68,70,72,-1,74,76,78,80,82,84,86,88,90,92,94,96,98,100,102,104,106,108,110,112,114,116,118,120,122,-1,-1,-1,-1,-1,-1,-1,-1,-1,-1,-1,-1,-1,-1,-1,-1,-1,-1,-1,-1,-1,-1,-1,-1,-1,-1,-1,-1,-1,-1,-1,-1,-1,-1,-1,-1,-1,-1,-1,-1,-1,-1,-1,-1,-1,-1,-1,-1,-1,-1,-1,-1,-1,-1,-1,-1,-1,-1,-1,-1],"split_conditions":[1.5709257E-1,-4.2672938E-1,9.113711E-1,-6.795858E-1,-2.3082618E-1,5.327349E-1,1.2887967E0,-7.7453226E-1,-5.145506E-1,-3.329012E-1,-2.1852861E-1,-2.2993093E-2,7.6026917E-1,1.2593927E0,1.465743E0,-6.82953E-1,1.0060824E0,-5.6243056E-1,-6.1961913E-1,-4.729302E-1,-3.6151657E-1,-5.6784374E-1,-1.4306764E-1,-1.1355753E-1,6.010252E-1,6.628062E-1,2.7917844E-1,1.0441376E0,1.5560787E0,4.9819455E-1,1.9619496E0,-7.9935634E-1,-2.7343076E3,-6.0381156E-1,1.1607635E0,-1.2656007E0,-3.480722E-1,3.574187E3,-1.1101207E0,-3.322335E-1,-3.8713792E-1,6.374175E-1,3.086532E-1,1.9489382E-1,1.670201E-1,-4.3480432E-1,1.9015205E0,-6.3897896E-1,-2.523067E-1,3.6157018E-1,-2.1426663E0,6.31588E-1,2.2697207E-2,1.4022753E0,1.15540124E-1,8.1284237E-1,1.2307737E0,8.94753E-1,5.48584E-1,3.6534876E-2,1.4368051E0,-1.8960255E0,1.5988595E0,-2.8126604E3,-2.787646E3,-2.624162E3,-2.4671162E3,9.3731586E2,-1.1129382E3,-2.0337632E3,-2.2851892E3,-2.0880825E3,-1.8672894E3,-1.3664788E3,-1.7703037E3,-1.6902633E3,-2.7083093E3,-1.3602189E3,-1.0445077E3,-1.2053928E3,-2.3595408E3,-5.663027E2,2.2886548E3,-1.0342823E3,3.887743E3,-6.3328094E2,2.791988E3,-1.91964E3,2.6608992E1,6.9143036E2,-1.2391855E3,1.1985466E3,3.1576346E2,1.3182412E3,8.2014185E2,1.286411E3,1.6558188E3,9.3782916E2,2.4276956E3,2.0788904E3,2.552E3,-5.3912225E2,2.51606E3,3.1892417E3,1.762004E3,-1.6812313E3,2.7561562E3,3.6601924E3,3.096712E3,4.1141577E3,3.6846692E3,3.6691042E3,8.7870496E2,1.4514318E3,3.4096145E3,2.464258E3,4.6394336E3,4.347899E3,4.0613174E3,2.3406357E3,4.652793E3,1.8087239E3,4.468638E3],"split_indices":[4,11,4,0,11,4,5,4,11,11,4,11,4,6,0,2,8,11,2,0,0,0,11,11,0,4,6,4,6,2,9,0,0,2,8,10,2,0,8,4,11,8,0,6,0,0,7,9,9,4,6,11,11,7,11,9,9,5,0,9,9,6,10,0,0,0,0,0,0,0,0,0,0,0,0,0,0,0,0,0,0,0,0,0,0,0,0,0,0,0,0,0,0,0,0,0,0,0,0,0,0,0,0,0,0,0,0,0,0,0,0,0,0,0,0,0,0,0,0,0,0,0,0],"split_type":[0,0,0,0,0,0,0,0,0,0,0,0,0,0,0,0,0,0,0,0,0,0,0,0,0,0,0,0,0,0,0,0,0,0,0,0,0,0,0,0,0,0,0,0,0,0,0,0,0,0,0,0,0,0,0,0,0,0,0,0,0,0,0,0,0,0,0,0,0,0,0,0,0,0,0,0,0,0,0,0,0,0,0,0,0,0,0,0,0,0,0,0,0,0,0,0,0,0,0,0,0,0,0,0,0,0,0,0,0,0,0,0,0,0,0,0,0,0,0,0,0,0,0],"sum_hessian":[3.7947E5,2.31491E5,1.47979E5,2.0963E5,2.1861E4,2.5586E4,1.22393E5,1.97625E5,1.2005E4,1.0864E4,1.0997E4,1.238E4,1.3206E4,2.9252E4,9.3141E4,1.87964E5,9.661E3,6.72E3,5.285E3,5.427E3,5.437E3,1.744E3,9.253E3,3.663E3,8.717E3,7.029E3,6.177E3,2.7691E4,1.561E3,2.3939E4,6.9202E4,1.83119E5,4.845E3,9.651E3,1E1,3.735E3,2.985E3,4E0,5.281E3,6.69E2,4.758E3,7.05E2,4.732E3,2.1E1,1.723E3,3.601E3,5.652E3,7.62E2,2.901E3,8.168E3,5.49E2,3.897E3,3.132E3,3.362E3,2.815E3,7.681E3,2.001E4,5.49E2,1.012E3,6.863E3,1.7076E4,5.576E4,1.3442E4,1.67991E5,1.5128E4,6.506E3,3.145E3,4E0,6E0,2.29E2,3.506E3,2.368E3,6.17E2,4.85E2,4.796E3,5.07E2,1.62E2,1.951E3,2.807E3,6.19E2,8.6E1,4.708E3,2.4E1,1E0,2E1,1.704E3,1.9E1,6.7E1,3.534E3,5.472E3,1.8E2,7.3E1,6.89E2,5.82E2,2.319E3,3.386E3,4.782E3,5.3E1,4.96E2,3.294E3,6.03E2,9E0,3.123E3,3.318E3,4.4E1,6E0,2.809E3,5.308E3,2.373E3,1.3506E4,6.504E3,1.66E2,3.83E2,3.2E1,9.8E2,3.6E1,6.827E3,8.012E3,9.064E3,6.6E1,5.5694E4,4.16E2,1.3026E4],"tree_param":{"num_deleted":"0","num_feature":"12","num_nodes":"123","size_leaf_vector":"1"}},{"base_weights":[-2.3695086E1,-8.162278E4,1.27521055E5,-8.877268E4,-1.0180708E4,6.330302E4,1.4043566E5,-9.045825E4,-6.31457E4,-2.8265275E4,9.13087E3,4.2974266E4,8.378972E4,1.2039092E5,1.4601712E5,-9.082002E4,-8.338035E4,-7.030862E4,-5.50102E4,-4.5572E4,-2.2261994E4,-1.7148693E4,1.4063739E4,2.7754646E4,5.0965082E4,7.341481E4,9.420495E4,1.2232802E5,8.885594E4,1.3851406E5,1.4851564E5,-2.7266072E3,-2.659633E3,-8.3456766E4,-9.139809E3,-7.355955E4,-6.600355E4,3.340599E3,-5.5110617E4,-7.126309E4,-4.1785445E4,-3.026054E4,-1.2000285E4,1.183951E5,-1.8756602E4,1.199686E4,6.144142E4,2.055305E4,3.5918414E4,2.566167E4,5.2481133E4,7.712971E4,6.571892E4,9.948338E4,8.588229E4,1.1100725E5,1.2721701E5,5.554929E4,1.0782266E5,1.488636E5,1.3461206E5,1.5009806E5,1.4171012E5,-2.5482546E3,-2.4016248E3,9.148204E2,-1.0843198E3,-2.2520632E3,-2.1318577E3,-2.0007162E3,-1.4896158E3,-1.7777921E3,-1.5286289E3,-1.7965216E3,-2.7754998E3,-1.5669591E3,-1.123601E3,-1.1983754E3,-7.747054E2,-3.7457907E2,2.2209478E3,-1.0187681E3,3.8623748E3,-6.1864746E2,1.5154974E3,8.853535E1,5.941336E2,1.4433125E3,2.8606294E3,7.642236E2,3.4841873E2,1.4988136E3,9.7599255E2,1.0852058E3,-7.767551E2,1.467763E3,1.9963171E3,-2.5890458E0,2.3250637E3,1.8717542E3,2.7150088E3,2.8096433E3,3.1433113E3,2.5340789E3,3.1032266E3,3.4704229E3,2.8735369E3,3.9683328E3,3.530067E3,2.9052126E3,4.3924283E2,5.778148E2,3.2860198E3,2.4870166E3,4.4815815E3,2.8498672E3,4.0548584E3,2.3192556E3,4.505587E3,1.7798748E3,4.3297964E3],"categories":[],"categories_nodes":[],"categories_segments":[],"categories_sizes":[],"default_left":[0,0,0,0,0,0,0,0,0,0,0,0,0,0,0,0,0,0,0,0,0,0,0,0,0,0,0,0,0,0,0,0,0,0,0,0,0,0,0,0,0,0,0,0,0,0,0,0,0,0,0,0,0,0,0,0,0,0,0,0,0,0,0,0,0,0,0,0,0,0,0,0,0,0,0,0,0,0,0,0,0,0,0,0,0,0,0,0,0,0,0,0,0,0,0,0,0,0,0,0,0,0,0,0,0,0,0,0,0,0,0,0,0,0,0,0,0,0,0,0,0],"id":7,"left_children":[1,3,5,7,9,11,13,15,17,19,21,23,25,27,29,31,33,35,37,39,41,43,45,47,49,51,53,55,57,59,61,-1,-1,63,65,67,69,-1,71,73,75,77,79,81,83,85,87,89,91,93,95,97,99,101,103,105,107,109,111,113,115,117,119,-1,-1,-1,-1,-1,-1,-1,-1,-1,-1,-1,-1,-1,-1,-1,-1,-1,-1,-1,-1,-1,-1,-1,-1,-1,-1,-1,-1,-1,-1,-1,-1,-1,-1,-1,-1,-1,-1,-1,-1,-1,-1,-1,-1,-1,-1,-1,-1,-1,-1,-1,-1,-1,-1,-1,-1,-1,-1],"loss_changes":[3.9476089E15,1.1815562E14,1.227252E14,9.077279E12,7.3500464E12,1.0316511E13,1.3766712E13,4.9767934E11,7.5252944E11,1.1281398E12,1.3196524E12,1.5115034E12,1.3266164E12,1.6287657E12,1.7860353E12,1.9058917E10,5.3729034E10,9.169797E10,1.0774118E11,2.692135E11,6.6209396E11,3.5288947E11,8.3847086E11,2.5118612E11,3.1152564E11,1.7181547E11,2.618504E11,1.3852947E12,9.7759474E11,9.527781E11,7.571222E11,0E0,0E0,4.169138E10,1.2875246E10,9.449767E9,3.0138171E10,0E0,1.01812535E11,8.1040376E10,1.08511625E11,1.9385549E11,1.487156E11,3.4334605E10,2.0658789E11,5.799847E11,1.5726176E11,9.9957146E10,9.378097E10,2.5184698E11,3.8146985E11,1.1983336E11,1.6098578E11,1.0619978E11,5.070704E10,5.320223E11,8.3741796E11,9.563199E11,1.4808724E11,2.145806E11,3.6849477E11,3.648038E11,2.9344693E12,0E0,0E0,0E0,0E0,0E0,0E0,0E0,0E0,0E0,0E0,0E0,0E0,0E0,0E0,0E0,0E0,0E0,0E0,0E0,0E0,0E0,0E0,0E0,0E0,0E0,0E0,0E0,0E0,0E0,0E0,0E0,0E0,0E0,0E0,0E0,0E0,0E0,0E0,0E0,0E0,0E0,0E0,0E0,0E0,0E0,0E0,0E0,0E0,0E0,0E0,0E0,0E0,0E0,0E0,0E0,0E0,0E0,0E0],"parents":[2147483647,0,0,1,1,2,2,3,3,4,4,5,5,6,6,7,7,8,8,9,9,10,10,11,11,12,12,13,13,14,14,15,15,16,16,17,17,18,18,19,19,20,20,21,21,22,22,23,23,24,24,25,25,26,26,27,27,28,28,29,29,30,30,33,33,34,34,35,35,36,36,38,38,39,39,40,40,41,41,42,42,43,43,44,44,45,45,46,46,47,47,48,48,49,49,50,50,51,51,52,52,53,53,54,54,55,55,56,56,57,57,58,58,59,59,60,60,61,61,62,62],"right_children":[2,4,6,8,10,12,14,16,18,20,22,24,26,28,30,32,34,36,38,40,42,44,46,48,50,52,54,56,58,60,62,-1,-1,64,66,68,70,-1,72,74,76,78,80,82,84,86,88,90,92,94,96,98,100,102,104,106,108,110,112,114,116,118,120,-1,-1,-1,-1,-1,-1,-1,-1,-1,-1,-1,-1,-1,-1,-1,-1,-1,-1,-1,-1,-1,-1,-1,-1,-1,-1,-1,-1,-1,-1,-1,-1,-1,-1,-1,-1,-1,-1,-1,-1,-1,-1,-1,-1,-1,-1,-1,-1,-1,-1,-1,-1,-1,-1,-1,-1,-1,-1],"split_conditions":[1.5709257E-1,-4.1312787E-1,8.9573616E-1,-6.81707E-1,-2.1668424E-1,5.327349E-1,1.2588934E0,-7.220318E-1,-5.145506E-1,-3.6545658E-1,-2.1852861E-1,-7.7269264E-3,7.3509824E-1,1.2593927E0,1.444163E0,-7.8527784E-1,1.0060824E0,-5.6243056E-1,-6.1961913E-1,-5.344132E-1,-2.9006475E-1,-5.6784374E-1,2.5867185E-1,2.5960258E-1,-2.1426663E0,9.200228E-1,6.869636E-1,1.0338598E0,1.5560787E0,5.3112936E-1,1.9619496E0,-2.7266072E3,-2.659633E3,-7.230881E-1,1.1607635E0,-5.854074E-1,1.2593927E0,3.340599E3,-4.6503225E-1,2.1973288E-2,-4.5211267E-1,-3.602231E-1,1.452406E0,1.9489382E-1,-1.3097404E-1,-1.1355753E-1,9.6582925E-1,6.130534E-1,-2.3596518E-1,-2.3179154E0,5.1084393E-1,2.2697207E-2,6.31588E-1,8.2362413E-1,9.908697E-1,1.0622368E0,1.1136475E0,1.4460354E0,-3.7432343E-1,-1.5655891E0,1.0834458E0,-1.8960255E0,1.5988595E0,-2.5482546E3,-2.4016248E3,9.148204E2,-1.0843198E3,-2.2520632E3,-2.1318577E3,-2.0007162E3,-1.4896158E3,-1.7777921E3,-1.5286289E3,-1.7965216E3,-2.7754998E3,-1.5669591E3,-1.123601E3,-1.1983754E3,-7.747054E2,-3.7457907E2,2.2209478E3,-1.0187681E3,3.8623748E3,-6.1864746E2,1.5154974E3,8.853535E1,5.941336E2,1.4433125E3,2.8606294E3,7.642236E2,3.4841873E2,1.4988136E3,9.7599255E2,1.0852058E3,-7.767551E2,1.467763E3,1.9963171E3,-2.5890458E0,2.3250637E3,1.8717542E3,2.7150088E3,2.8096433E3,3.1433113E3,2.5340789E3,3.1032266E3,3.4704229E3,2.8735369E3,3.9683328E3,3.530067E3,2.9052126E3,4.3924283E2,5.778148E2,3.2860198E3,2.4870166E3,4.4815815E3,2.8498672E3,4.0548584E3,2.3192556E3,4.505587E3,1.7798748E3,4.3297964E3],"split_indices":[4,11,4,1,11,4,5,11,11,1,4,11,4,6,0,0,8,11,2,1,11,0,0,5,6,10,8,4,6,2,9,0,0,1,8,11,6,0,11,10,5,11,8,6,0,11,0,8,9,6,11,11,11,4,0,9,10,6,10,6,0,6,10,0,0,0,0,0,0,0,0,0,0,0,0,0,0,0,0,0,0,0,0,0,0,0,0,0,0,0,0,0,0,0,0,0,0,0,0,0,0,0,0,0,0,0,0,0,0,0,0,0,0,0,0,0,0,0,0,0,0],"split_type":[0,0,0,0,0,0,0,0,0,0,0,0,0,0,0,0,0,0,0,0,0,0,0,0,0,0,0,0,0,0,0,0,0,0,0,0,0,0,0,0,0,0,0,0,0,0,0,0,0,0,0,0,0,0,0,0,0,0,0,0,0,0,0,0,0,0,0,0,0,0,0,0,0,0,0,0,0,0,0,0,0,0,0,0,0,0,0,0,0,0,0,0,0,0,0,0,0,0,0,0,0,0,0,0,0,0,0,0,0,0,0,0,0,0,0,0,0,0,0,0,0],"sum_hessian":[3.79301E5,2.31314E5,1.47987E5,2.1027E5,2.1044E4,2.4779E4,1.23208E5,1.97291E5,1.2979E4,1.0867E4,1.0177E4,1.2439E4,1.234E4,2.684E4,9.6368E4,1.87686E5,9.605E3,6.898E3,6.081E3,2.797E3,8.07E3,1.608E3,8.569E3,4.284E3,8.155E3,6.186E3,6.154E3,2.5284E4,1.556E3,2.4088E4,7.228E4,1.82023E5,5.663E3,9.595E3,1E1,3.921E3,2.977E3,3E0,6.078E3,3.57E2,2.44E3,4.534E3,3.536E3,1.8E1,1.59E3,8.212E3,3.57E2,2.278E3,2.006E3,4.62E2,7.693E3,4.166E3,2.02E3,3.759E3,2.395E3,7.633E3,1.7651E4,5.66E2,9.9E2,6.585E3,1.7503E4,5.8627E4,1.3653E4,6.663E3,2.932E3,4E0,6E0,2.426E3,1.495E3,2.854E3,1.23E2,3.035E3,3.043E3,2.35E2,1.22E2,7.12E2,1.728E3,1.422E3,3.112E3,3.517E3,1.9E1,1E0,1.7E1,1.549E3,4.1E1,3.805E3,4.407E3,2.58E2,9.9E1,1.468E3,8.1E2,3.87E2,1.619E3,3.84E2,7.8E1,6.144E3,1.549E3,2E1,4.146E3,1.784E3,2.36E2,1.798E3,1.961E3,2.222E3,1.73E2,5.835E3,1.798E3,1.1528E4,6.123E3,2.81E2,2.85E2,1.9E1,9.71E2,5.3E1,6.532E3,2.42E2,1.7261E4,7.2E1,5.8555E4,4.21E2,1.3232E4],"tree_param":{"num_deleted":"0","num_feature":"12","num_nodes":"121","size_leaf_vector":"1"}},{"base_weights":[-6.704735E0,-7.914401E4,1.2362666E5,-8.6404945E4,-1.2322013E4,6.0332547E4,1.3593556E5,-8.7744625E4,-6.3195984E4,-3.4241535E4,5.205538E3,4.0438E4,7.888309E4,1.165388E5,1.4170955E5,-8.806809E4,-8.011323E4,-6.9848266E4,-5.7176484E4,-5.2821387E4,-2.9893172E4,-1.1213621E4,1.2272341E4,2.5276064E4,4.748151E4,6.864528E4,8.920712E4,1.1837004E5,8.6567945E4,1.347423E5,1.4404731E5,-8.814711E4,-2.5525586E3,-8.019546E4,-1.2838821E4,-7.208813E4,-6.6633664E4,3.4082322E3,-5.7309652E4,-7.353014E4,-4.8512938E4,-3.9902137E4,-2.3214432E4,6.868741E4,-1.288775E4,9.611158E3,5.5215695E4,1.2011882E4,2.8799367E4,4.5912E4,7.27488E4,6.3513836E4,7.371093E4,9.346981E4,8.0630375E4,1.07095625E5,1.2348263E5,5.310999E4,1.0508429E5,1.409327E5,1.2744287E5,1.4550761E5,1.3774542E5,-2.6468416E3,-2.6283977E3,-2.4349944E3,-2.2767827E3,8.9286475E2,-1.2430193E3,-1.956788E3,-2.1748723E3,-2.0179056E3,-1.5755969E3,-1.8294263E3,-1.6085045E3,-1.9703282E3,-2.652719E3,-1.6680593E3,-1.3450258E3,-1.2033578E3,2.425127E3,-7.126917E2,1.403442E3,1.297607E3,3.3051094E3,-1.00520026E3,-2.3196457E2,-4.7031097E1,5.160375E2,1.3036882E3,2.5626152E3,3.3978632E2,3.4684272E3,1.2406759E3,7.6980023E2,1.1628336E3,1.5065253E3,1.0529989E3,2.3136008E3,1.8199745E3,2.2339207E3,2.1915322E3,3.658485E3,2.6131082E3,2.9379749E3,2.3502207E3,2.9093022E3,3.359619E3,2.7921604E3,3.8452288E3,3.4316833E3,2.7938704E3,4.0356995E2,8.4440204E2,3.2053877E3,2.7831626E3,4.2497847E3,3.8515493E3,3.280644E3,2.3901946E3,4.3695166E3,2.4521218E3,4.211972E3],"categories":[],"categories_nodes":[],"categories_segments":[],"categories_sizes":[],"default_left":[0,0,0,0,0,0,0,0,0,0,0,0,0,0,0,0,0,0,0,0,0,0,0,0,0,0,0,0,0,0,0,0,0,0,0,0,0,0,0,0,0,0,0,0,0,0,0,0,0,0,0,0,0,0,0,0,0,0,0,0,0,0,0,0,0,0,0,0,0,0,0,0,0,0,0,0,0,0,0,0,0,0,0,0,0,0,0,0,0,0,0,0,0,0,0,0,0,0,0,0,0,0,0,0,0,0,0,0,0,0,0,0,0,0,0,0,0,0,0,0,0,0,0],"id":8,"left_children":[1,3,5,7,9,11,13,15,17,19,21,23,25,27,29,31,33,35,37,39,41,43,45,47,49,51,53,55,57,59,61,63,-1,65,67,69,71,-1,73,75,77,79,81,83,85,87,89,91,93,95,97,99,101,103,105,107,109,111,113,115,117,119,121,-1,-1,-1,-1,-1,-1,-1,-1,-1,-1,-1,-1,-1,-1,-1,-1,-1,-1,-1,-1,-1,-1,-1,-1,-1,-1,-1,-1,-1,-1,-1,-1,-1,-1,-1,-1,-1,-1,-1,-1,-1,-1,-1,-1,-1,-1,-1,-1,-1,-1,-1,-1,-1,-1,-1,-1,-1,-1,-1,-1],"loss_changes":[3.7132274E15,1.1227246E14,1.1538859E14,6.4841927E12,8.7141174E12,8.897302E12,1.3871402E13,4.800968E11,4.5225922E11,8.1264116E11,1.4625918E12,1.2417677E12,1.3128423E12,1.551255E12,1.5370614E12,3.717831E10,4.3419435E10,3.4133246E10,1.4267344E11,1.6684784E11,5.4514942E11,5.0825468E11,1.00650556E12,1.7228864E11,3.117773E11,1.5830142E11,2.1950051E11,1.5320954E12,1.0116682E12,1.06753425E12,6.382053E11,2.6843546E8,0E0,2.7372028E10,1.4633161E10,4.1513124E9,1.6327377E10,0E0,7.7844185E10,3.243665E10,3.8815924E10,8.602046E10,1.8706806E11,7.753017E10,3.947624E11,7.041853E11,1.7885613E11,5.3886386E10,1.1396422E11,2.2847213E11,7.348997E10,9.284616E10,9.132573E10,1.0914837E11,6.9840404E10,5.638906E11,7.719868E11,9.303517E11,1.4014533E11,4.415092E11,1.739965E11,5.3485765E11,1.9913884E12,0E0,0E0,0E0,0E0,0E0,0E0,0E0,0E0,0E0,0E0,0E0,0E0,0E0,0E0,0E0,0E0,0E0,0E0,0E0,0E0,0E0,0E0,0E0,0E0,0E0,0E0,0E0,0E0,0E0,0E0,0E0,0E0,0E0,0E0,0E0,0E0,0E0,0E0,0E0,0E0,0E0,0E0,0E0,0E0,0E0,0E0,0E0,0E0,0E0,0E0,0E0,0E0,0E0,0E0,0E0,0E0,0E0,0E0,0E0,0E0],"parents":[2147483647,0,0,1,1,2,2,3,3,4,4,5,5,6,6,7,7,8,8,9,9,10,10,11,11,12,12,13,13,14,14,15,15,16,16,17,17,18,18,19,19,20,20,21,21,22,22,23,23,24,24,25,25,26,26,27,27,28,28,29,29,30,30,31,31,33,33,34,34,35,35,36,36,38,38,39,39,40,40,41,41,42,42,43,43,44,44,45,45,46,46,47,47,48,48,49,49,50,50,51,51,52,52,53,53,54,54,55,55,56,56,57,57,58,58,59,59,60,60,61,61,62,62],"right_children":[2,4,6,8,10,12,14,16,18,20,22,24,26,28,30,32,34,36,38,40,42,44,46,48,50,52,54,56,58,60,62,64,-1,66,68,70,72,-1,74,76,78,80,82,84,86,88,90,92,94,96,98,100,102,104,106,108,110,112,114,116,118,120,122,-1,-1,-1,-1,-1,-1,-1,-1,-1,-1,-1,-1,-1,-1,-1,-1,-1,-1,-1,-1,-1,-1,-1,-1,-1,-1,-1,-1,-1,-1,-1,-1,-1,-1,-1,-1,-1,-1,-1,-1,-1,-1,-1,-1,-1,-1,-1,-1,-1,-1,-1,-1,-1,-1,-1,-1,-1,-1,-1,-1],"split_conditions":[1.5709257E-1,-4.3944034E-1,8.790159E-1,-6.81707E-1,-2.6027367E-1,5.070861E-1,1.2671297E0,-7.079694E-1,-5.3907186E-1,-4.3507847E-1,-1.311626E-1,-2.2993093E-2,7.10692E-1,1.2593927E0,1.4430517E0,-6.8232346E-1,1.042209E0,-5.734965E-1,-6.1961913E-1,-5.641571E-1,-3.602231E-1,-7.055406E-1,2.1165507E-1,-1.1355753E-1,6.010837E-1,6.112531E-1,9.200228E-1,1.0338598E0,1.5560787E0,1.3512046E0,1.9619496E0,-7.0554906E-1,-2.5525586E3,-7.034474E-1,1.2122387E0,-1.2872072E0,1.2593927E0,3.4082322E3,-4.8919243E-1,1.2187543E-2,-4.9387985E-1,2.1165507E-1,1.3242812E0,-8.3597794E-2,-3.2593495E-1,-1.5826674E-1,8.1998277E-1,9.198753E-1,-2.523067E-1,3.3776957E-1,-2.1426663E0,4.348706E-1,1.2272469E0,7.864484E-1,7.373859E-1,1.0404099E0,1.1208159E0,1.4460354E0,-3.9500484E-1,1.1101773E0,7.9491866E-1,-1.8960255E0,1.5988595E0,-2.6468416E3,-2.6283977E3,-2.4349944E3,-2.2767827E3,8.9286475E2,-1.2430193E3,-1.956788E3,-2.1748723E3,-2.0179056E3,-1.5755969E3,-1.8294263E3,-1.6085045E3,-1.9703282E3,-2.652719E3,-1.6680593E3,-1.3450258E3,-1.2033578E3,2.425127E3,-7.126917E2,1.403442E3,1.297607E3,3.3051094E3,-1.00520026E3,-2.3196457E2,-4.7031097E1,5.160375E2,1.3036882E3,2.5626152E3,3.3978632E2,3.4684272E3,1.2406759E3,7.6980023E2,1.1628336E3,1.5065253E3,1.0529989E3,2.3136008E3,1.8199745E3,2.2339207E3,2.1915322E3,3.658485E3,2.6131082E3,2.9379749E3,2.3502207E3,2.9093022E3,3.359619E3,2.7921604E3,3.8452288E3,3.4316833E3,2.7938704E3,4.0356995E2,8.4440204E2,3.2053877E3,2.7831626E3,4.2497847E3,3.8515493E3,3.280644E3,2.3901946E3,4.3695166E3,2.4521218E3,4.211972E3],"split_indices":[4,11,4,1,11,4,5,11,11,1,1,11,4,6,5,3,9,11,2,1,11,2,1,11,1,4,10,4,6,9,9,2,0,1,9,9,6,0,11,10,4,1,10,11,1,11,1,1,9,4,6,11,1,5,11,10,9,6,9,1,6,6,10,0,0,0,0,0,0,0,0,0,0,0,0,0,0,0,0,0,0,0,0,0,0,0,0,0,0,0,0,0,0,0,0,0,0,0,0,0,0,0,0,0,0,0,0,0,0,0,0,0,0,0,0,0,0,0,0,0,0,0,0],"split_type":[0,0,0,0,0,0,0,0,0,0,0,0,0,0,0,0,0,0,0,0,0,0,0,0,0,0,0,0,0,0,0,0,0,0,0,0,0,0,0,0,0,0,0,0,0,0,0,0,0,0,0,0,0,0,0,0,0,0,0,0,0,0,0,0,0,0,0,0,0,0,0,0,0,0,0,0,0,0,0,0,0,0,0,0,0,0,0,0,0,0,0,0,0,0,0,0,0,0,0,0,0,0,0,0,0,0,0,0,0,0,0,0,0,0,0,0,0,0,0,0,0,0,0],"sum_hessian":[3.79518E5,2.314E5,1.48118E5,2.0872E5,2.268E4,2.4116E4,1.24002E5,1.97327E5,1.1393E4,1.0077E4,1.2603E4,1.1638E4,1.2478E4,2.845E4,9.5552E4,1.89293E5,8.034E3,5.407E3,5.986E3,1.909E3,8.168E3,3.792E3,8.811E3,3.693E3,7.945E3,6.269E3,6.209E3,2.6809E4,1.641E3,2.4021E4,7.1531E4,1.8438E5,4.913E3,8.024E3,1E1,3.174E3,2.233E3,4E0,5.982E3,3.26E2,1.583E3,3.267E3,4.901E3,7.7E1,3.715E3,8.298E3,5.13E2,7.76E2,2.917E3,7.483E3,4.62E2,3.121E3,3.148E3,4.141E3,2.068E3,8.371E3,1.8438E4,5.86E2,1.055E3,1.2988E4,1.1033E4,5.8056E4,1.3475E4,1.59962E5,2.4418E4,6.532E3,1.492E3,4E0,6E0,1.87E2,2.987E3,2.134E3,9.9E1,2.992E3,2.99E3,2.17E2,1.09E2,5.36E2,1.047E3,3.262E3,5E0,4.864E3,3.7E1,4.9E1,2.8E1,7.42E2,2.973E3,3.356E3,4.942E3,3.71E2,1.42E2,7.72E2,4E0,5.81E2,2.336E3,2.816E3,4.667E3,4.9E1,4.13E2,2.482E3,6.39E2,3.108E3,4E1,1.715E3,2.426E3,1.819E3,2.49E2,6.201E3,2.17E3,1.2154E4,6.284E3,2.91E2,2.95E2,2.4E1,1.031E3,1.95E2,1.2793E4,1.0481E4,5.52E2,1.27E2,5.7929E4,6.11E2,1.2864E4],"tree_param":{"num_deleted":"0","num_feature":"12","num_nodes":"123","size_leaf_vector":"1"}},{"base_weights":[1.6360344E2,-7.64715E4,1.2052766E5,-8.354208E4,-8.441578E3,6.1951266E4,1.3237389E5,-8.5112984E4,-5.9484953E4,-2.6536982E4,9.557141E3,4.2770887E4,8.0985234E4,1.1294235E5,1.3696716E5,-8.542576E4,-7.776798E4,-6.622144E4,-5.1782625E4,-4.2645156E4,-2.100881E4,-3.2891587E3,1.7867562E4,3.046297E4,5.0815375E4,7.1512914E4,9.052074E4,1.1478947E5,8.69229E4,1.2956126E5,1.3994397E5,-8.550986E4,-2.4836577E3,-7.785083E4,-2.8083646E4,-6.989836E4,-6.2975484E4,-5.1924477E4,9.900412E4,-6.65562E4,-3.908775E4,-2.8368139E4,-1.1534678E4,-4.458907E3,1.3951414E5,1.0207567E4,3.1730201E4,2.4311807E4,4.04848E4,2.3621207E4,5.246903E4,7.515373E4,6.4478242E4,9.638332E4,8.34694E4,1.1600503E5,7.832872E4,5.3598055E4,1.0418153E5,1.3673916E5,1.226534E5,1.4136269E5,1.3382442E5,-2.5671492E3,-2.5448904E3,-2.3813496E3,-2.2563188E3,-4.978306E2,-1.2765559E3,-1.8932611E3,-2.1096992E3,-1.894871E3,-4.9396793E2,2.754055E3,-1.5610627E3,3.3092275E3,6.373016E2,-2.0615352E3,-1.1211549E2,-1.431281E3,-1.0383723E3,-8.619182E2,2.109441E3,-3.6342725E2,1.9354475E3,-6.938655E1,-1.6580342E3,3.3630674E3,4.858327E3,2.647204E2,1.7088881E3,1.0278298E3,-1.2600139E3,8.624852E2,4.694868E2,1.7191422E3,1.0804617E3,1.00673047E3,-7.670416E2,1.5231122E3,2.3369592E3,-9.954946E1,2.2643875E3,1.8451176E3,2.702014E3,2.9100376E3,1.4822046E3,-1.7774419E3,2.513815E3,3.6422202E3,3.1995134E3,-1.933294E2,3.8888423E3,2.8638289E3,4.1014328E2,2.9345015E3,3.7401526E3,4.2293447E3,3.9795825E3,3.7609019E3,3.4824185E3,3.0527427E3,4.2462627E3,2.6393167E3,4.0901155E3],"categories":[],"categories_nodes":[],"categories_segments":[],"categories_sizes":[],"default_left":[0,0,0,0,0,0,0,0,0,0,0,0,0,0,0,0,0,0,0,0,0,0,0,0,0,0,0,0,0,0,0,0,0,0,0,0,0,0,0,0,0,0,0,0,0,0,0,0,0,0,0,0,0,0,0,0,0,0,0,0,0,0,0,0,0,0,0,0,0,0,0,0,0,0,0,0,0,0,0,0,0,0,0,0,0,0,0,0,0,0,0,0,0,0,0,0,0,0,0,0,0,0,0,0,0,0,0,0,0,0,0,0,0,0,0,0,0,0,0,0,0,0,0,0,0],"id":9,"left_children":[1,3,5,7,9,11,13,15,17,19,21,23,25,27,29,31,33,35,37,39,41,43,45,47,49,51,53,55,57,59,61,63,-1,65,67,69,71,73,75,77,79,81,83,85,87,89,91,93,95,97,99,101,103,105,107,109,111,113,115,117,119,121,123,-1,-1,-1,-1,-1,-1,-1,-1,-1,-1,-1,-1,-1,-1,-1,-1,-1,-1,-1,-1,-1,-1,-1,-1,-1,-1,-1,-1,-1,-1,-1,-1,-1,-1,-1,-1,-1,-1,-1,-1,-1,-1,-1,-1,-1,-1,-1,-1,-1,-1,-1,-1,-1,-1,-1,-1,-1,-1,-1,-1,-1,-1],"loss_changes":[3.5035576E15,1.1162714E14,1.0252181E14,7.9393813E12,7.1166696E12,9.071298E12,1.0954046E13,4.466766E11,6.6533825E11,9.693797E11,1.1695943E12,1.2245019E12,1.120307E12,1.1196107E12,2.1732535E12,3.489661E10,3.1042044E10,7.7615596E10,1.3386016E11,2.3412448E11,5.654071E11,7.1957925E11,7.0603676E11,3.0089622E11,3.3544995E11,1.5555835E11,2.4878934E11,9.633813E11,8.9278697E11,1.3969717E12,5.964636E11,5.368709E8,0E0,2.6520584E10,1.7873234E9,4.831838E9,3.077256E10,1.006633E11,2.9304873E9,4.8492446E10,9.19166E10,1.6534418E11,1.5720595E11,4.6546026E11,3.3654702E9,2.7675253E11,4.4311485E11,1.1629376E11,1.3783715E11,2.11517E11,3.008742E11,1.0563145E11,1.5756427E11,9.3499425E10,1.3590803E11,1.06001806E12,3.0928336E12,8.929175E11,1.2187284E11,2.2335508E11,2.4442726E11,3.943317E11,1.5271461E12,0E0,0E0,0E0,0E0,0E0,0E0,0E0,0E0,0E0,0E0,0E0,0E0,0E0,0E0,0E0,0E0,0E0,0E0,0E0,0E0,0E0,0E0,0E0,0E0,0E0,0E0,0E0,0E0,0E0,0E0,0E0,0E0,0E0,0E0,0E0,0E0,0E0,0E0,0E0,0E0,0E0,0E0,0E0,0E0,0E0,0E0,0E0,0E0,0E0,0E0,0E0,0E0,0E0,0E0,0E0,0E0,0E0,0E0,0E0,0E0,0E0,0E0],"parents":[2147483647,0,0,1,1,2,2,3,3,4,4,5,5,6,6,7,7,8,8,9,9,10,10,11,11,12,12,13,13,14,14,15,15,16,16,17,17,18,18,19,19,20,20,21,21,22,22,23,23,24,24,25,25,26,26,27,27,28,28,29,29,30,30,31,31,33,33,34,34,35,35,36,36,37,37,38,38,39,39,40,40,41,41,42,42,43,43,44,44,45,45,46,46,47,47,48,48,49,49,50,50,51,51,52,52,53,53,54,54,55,55,56,56,57,57,58,58,59,59,60,60,61,61,62,62],"right_children":[2,4,6,8,10,12,14,16,18,20,22,24,26,28,30,32,34,36,38,40,42,44,46,48,50,52,54,56,58,60,62,64,-1,66,68,70,72,74,76,78,80,82,84,86,88,90,92,94,96,98,100,102,104,106,108,110,112,114,116,118,120,122,124,-1,-1,-1,-1,-1,-1,-1,-1,-1,-1,-1,-1,-1,-1,-1,-1,-1,-1,-1,-1,-1,-1,-1,-1,-1,-1,-1,-1,-1,-1,-1,-1,-1,-1,-1,-1,-1,-1,-1,-1,-1,-1,-1,-1,-1,-1,-1,-1,-1,-1,-1,-1,-1,-1,-1,-1,-1,-1,-1,-1,-1,-1],"split_conditions":[1.797583E-1,-4.1312787E-1,9.113711E-1,-6.81707E-1,-2.1668424E-1,5.581714E-1,1.2420065E0,-7.079694E-1,-5.145506E-1,-3.6545658E-1,-5.2313033E-2,2.2697207E-2,7.6026917E-1,1.2593927E0,1.4376847E0,-7.8127503E-1,8.1690544E-1,-5.734965E-1,2.1189104E-1,-5.344132E-1,-2.9006475E-1,1.7208383E0,-7.7269264E-3,3.151888E-1,-2.1426663E0,8.615683E-1,2.7917844E-1,1.9015205E0,1.5560787E0,1.3032942E0,1.9619496E0,-7.9935634E-1,-2.4836577E3,-6.0381156E-1,1.2157049E0,-1.2535225E0,-1.6024597E-1,-5.963819E-1,9.1210485E-1,1.0474163E0,-4.4182298E-1,2.1189104E-1,3.086532E-1,1.9015205E0,-1.281902E0,3.086532E-1,1.4022753E0,6.374175E-1,-1.8506761E-1,-2.3179154E0,6.488906E-1,2.2697207E-2,7.208015E-1,1.4022753E0,1.15540124E-1,8.1284237E-1,-2.1426663E0,1.4460354E0,2.8097048E0,5.3112936E-1,1.7182192E0,4.4477582E-2,1.9583166E0,-2.5671492E3,-2.5448904E3,-2.3813496E3,-2.2563188E3,-4.978306E2,-1.2765559E3,-1.8932611E3,-2.1096992E3,-1.894871E3,-4.9396793E2,2.754055E3,-1.5610627E3,3.3092275E3,6.373016E2,-2.0615352E3,-1.1211549E2,-1.431281E3,-1.0383723E3,-8.619182E2,2.109441E3,-3.6342725E2,1.9354475E3,-6.938655E1,-1.6580342E3,3.3630674E3,4.858327E3,2.647204E2,1.7088881E3,1.0278298E3,-1.2600139E3,8.624852E2,4.694868E2,1.7191422E3,1.0804617E3,1.00673047E3,-7.670416E2,1.5231122E3,2.3369592E3,-9.954946E1,2.2643875E3,1.8451176E3,2.702014E3,2.9100376E3,1.4822046E3,-1.7774419E3,2.513815E3,3.6422202E3,3.1995134E3,-1.933294E2,3.8888423E3,2.8638289E3,4.1014328E2,2.9345015E3,3.7401526E3,4.2293447E3,3.9795825E3,3.7609019E3,3.4824185E3,3.0527427E3,4.2462627E3,2.6393167E3,4.0901155E3],"split_indices":[4,11,4,1,11,4,0,11,11,1,1,11,4,6,4,0,8,11,0,1,11,11,11,4,6,9,6,7,6,9,9,0,0,2,8,8,3,3,0,8,4,0,0,7,6,0,7,8,8,6,0,11,11,7,11,9,6,6,6,2,8,8,8,0,0,0,0,0,0,0,0,0,0,0,0,0,0,0,0,0,0,0,0,0,0,0,0,0,0,0,0,0,0,0,0,0,0,0,0,0,0,0,0,0,0,0,0,0,0,0,0,0,0,0,0,0,0,0,0,0,0,0,0,0,0],"split_type":[0,0,0,0,0,0,0,0,0,0,0,0,0,0,0,0,0,0,0,0,0,0,0,0,0,0,0,0,0,0,0,0,0,0,0,0,0,0,0,0,0,0,0,0,0,0,0,0,0,0,0,0,0,0,0,0,0,0,0,0,0,0,0,0,0,0,0,0,0,0,0,0,0,0,0,0,0,0,0,0,0,0,0,0,0,0,0,0,0,0,0,0,0,0,0,0,0,0,0,0,0,0,0,0,0,0,0,0,0,0,0,0,0,0,0,0,0,0,0,0,0,0,0,0,0],"sum_hessian":[3.79824E5,2.32068E5,1.47756E5,2.10219E5,2.1849E4,2.4856E4,1.229E5,1.97331E5,1.2888E4,1.0895E4,1.0954E4,1.2382E4,1.2474E4,2.3502E4,9.9398E4,1.89261E5,8.07E3,6.871E3,6.017E3,2.782E3,8.113E3,4.303E3,6.651E3,4.896E3,7.486E3,6.262E3,6.212E3,2.1941E4,1.561E3,2.8511E4,7.0887E4,1.83381E5,5.88E3,8.056E3,1.4E1,3.212E3,3.659E3,6.012E3,5E0,3.58E2,2.424E3,4.565E3,3.548E3,4.269E3,3.4E1,4.285E3,2.366E3,3.036E3,1.86E3,4.3E2,7.056E3,4.12E3,2.142E3,3.385E3,2.827E3,2.1231E4,7.1E2,5.34E2,1.027E3,1.3973E4,1.4538E4,5.7528E4,1.3359E4,1.67998E5,1.5383E4,5.085E3,2.971E3,9E0,5E0,1.98E2,3.014E3,3.644E3,1.5E1,4E0,6.008E3,4E0,1E0,3.46E2,1.2E1,8.25E2,1.599E3,4.549E3,1.6E1,3.522E3,2.6E1,4.097E3,1.72E2,1.8E1,1.6E1,4.163E3,1.22E2,2.288E3,7.8E1,2.006E3,1.03E3,3.88E2,1.472E3,3.58E2,7.2E1,6.617E3,4.39E2,1.7E1,4.103E3,1.922E3,2.2E2,3.34E3,4.5E1,6E0,2.821E3,1.3451E4,7.78E3,2.68E2,4.42E2,2.6E2,2.74E2,7.88E2,2.39E2,6.842E3,7.131E3,1.0281E4,4.257E3,2.62E2,5.7266E4,6.96E2,1.2663E4],"tree_param":{"num_deleted":"0","num_feature":"12","num_nodes":"125","size_leaf_vector":"1"}},{"base_weights":[-5.0739037E1,-7.483467E4,1.1582794E5,-8.141834E4,-1.4115325E4,5.433674E4,1.2770751E5,-8.26312E4,-6.152041E4,-3.4809305E4,2.4925293E3,3.675813E4,7.31044E4,1.080347E5,1.3282822E5,-8.290362E4,-7.695644E4,-6.74743E4,-5.556917E4,-4.9344453E4,-3.0353203E4,-1.1945664E4,9.876821E3,2.0563271E4,4.3542234E4,6.342052E4,8.160639E4,9.8052805E4,1.1287994E5,1.2571195E5,1.3579045E5,-2.490117E3,-8.201266E4,-7.7025484E4,-7.157902E3,-2.1211504E3,-6.528535E4,-4.4656887E4,-5.6651E4,-7.082961E4,-4.533371E4,-3.833892E4,-2.3481121E4,6.533887E4,-1.3353368E4,7.325578E3,5.7772785E4,7.152441E3,2.404672E4,4.2134535E4,6.816675E4,6.966938E4,5.9343086E4,8.611992E4,7.463581E4,1.02032016E5,8.42305E4,1.15005945E5,7.014826E4,1.3237553E5,1.1900762E5,1.3667666E5,1.2537795E5,-2.0977615E3,-2.47465E3,-2.3622898E3,-2.2551648E3,8.833838E2,-1.0940482E3,-1.9736569E3,-1.6938647E3,-1.3996154E3,-9.331776E2,-2.0026471E3,-1.6661008E3,-1.6264279E3,-2.275202E3,-1.591682E3,-1.2529386E3,3.257006E3,-1.1560443E3,-7.151207E2,1.9289275E3,1.2750433E3,3.1563132E3,-9.7797345E2,-2.5002046E2,4.4332718E1,6.124916E2,1.393047E3,2.804288E3,-1.4270294E3,2.7698837E2,6.452497E2,1.1731503E3,1.0981825E3,1.4210339E3,1.8938068E3,2.917656E3,2.1293127E3,3.2853705E2,1.9458569E3,1.6515323E3,-1.1431644E3,2.5928418E3,2.1902693E3,2.8718743E3,3.0853838E3,1.7715819E3,-6.28687E2,2.532262E3,3.49017E3,2.3657842E3,2.9025166E3,5.821332E2,4.099915E3,3.8498823E3,3.3620464E3,3.644347E3,2.9252827E3,4.1049053E3,2.9892883E3,4.1628833E3],"categories":[],"categories_nodes":[],"categories_segments":[],"categories_sizes":[],"default_left":[0,0,0,0,0,0,0,0,0,0,0,0,0,0,0,0,0,0,0,0,0,0,0,0,0,0,0,0,0,0,0,0,0,0,0,0,0,0,0,0,0,0,0,0,0,0,0,0,0,0,0,0,0,0,0,0,0,0,0,0,0,0,0,0,0,0,0,0,0,0,0,0,0,0,0,0,0,0,0,0,0,0,0,0,0,0,0,0,0,0,0,0,0,0,0,0,0,0,0,0,0,0,0,0,0,0,0,0,0,0,0,0,0,0,0,0,0,0,0,0,0,0,0],"id":10,"left_children":[1,3,5,7,9,11,13,15,17,19,21,23,25,27,29,31,33,35,37,39,41,43,45,47,49,51,53,55,57,59,61,-1,63,65,67,-1,69,71,73,75,77,79,81,83,85,87,89,91,93,95,97,99,101,103,105,107,109,111,113,115,117,119,121,-1,-1,-1,-1,-1,-1,-1,-1,-1,-1,-1,-1,-1,-1,-1,-1,-1,-1,-1,-1,-1,-1,-1,-1,-1,-1,-1,-1,-1,-1,-1,-1,-1,-1,-1,-1,-1,-1,-1,-1,-1,-1,-1,-1,-1,-1,-1,-1,-1,-1,-1,-1,-1,-1,-1,-1,-1,-1,-1,-1],"loss_changes":[3.2906622E15,9.2257105E13,1.0879273E14,5.019609E12,7.7594084E12,7.953734E12,1.2560363E13,2.968896E11,4.202399E11,6.495708E11,1.335588E12,1.3675067E12,9.550682E11,1.2360446E12,2.0707111E12,9.932112E9,4.2836427E10,3.7652267E10,6.8182606E10,1.9989529E11,4.214447E11,4.6204918E11,1.01232266E12,1.716958E11,3.0137228E11,1.3490769E11,1.8885693E11,4.552917E11,1.5684348E12,1.2853025E12,6.2800475E11,0E0,1.0363286E11,2.2707962E10,1.1802627E10,0E0,1.2163482E10,1.3296927E10,5.7607717E10,2.6607747E10,5.2604436E10,1.0657307E11,1.3095849E11,6.4731283E10,4.019756E11,6.024396E11,1.6527157E11,8.696171E10,1.1077275E11,2.385458E11,6.320305E10,1.6423531E11,7.480856E10,1.4725992E11,7.698121E10,2.228979E11,3.722235E10,7.8727086E11,1.111792E12,2.3571988E11,2.3545145E11,3.740648E11,1.8793166E12,0E0,0E0,0E0,0E0,0E0,0E0,0E0,0E0,0E0,0E0,0E0,0E0,0E0,0E0,0E0,0E0,0E0,0E0,0E0,0E0,0E0,0E0,0E0,0E0,0E0,0E0,0E0,0E0,0E0,0E0,0E0,0E0,0E0,0E0,0E0,0E0,0E0,0E0,0E0,0E0,0E0,0E0,0E0,0E0,0E0,0E0,0E0,0E0,0E0,0E0,0E0,0E0,0E0,0E0,0E0,0E0,0E0,0E0,0E0,0E0],"parents":[2147483647,0,0,1,1,2,2,3,3,4,4,5,5,6,6,7,7,8,8,9,9,10,10,11,11,12,12,13,13,14,14,15,15,16,16,17,17,18,18,19,19,20,20,21,21,22,22,23,23,24,24,25,25,26,26,27,27,28,28,29,29,30,30,32,32,33,33,34,34,36,36,37,37,38,38,39,39,40,40,41,41,42,42,43,43,44,44,45,45,46,46,47,47,48,48,49,49,50,50,51,51,52,52,53,53,54,54,55,55,56,56,57,57,58,58,59,59,60,60,61,61,62,62],"right_children":[2,4,6,8,10,12,14,16,18,20,22,24,26,28,30,32,34,36,38,40,42,44,46,48,50,52,54,56,58,60,62,-1,64,66,68,-1,70,72,74,76,78,80,82,84,86,88,90,92,94,96,98,100,102,104,106,108,110,112,114,116,118,120,122,-1,-1,-1,-1,-1,-1,-1,-1,-1,-1,-1,-1,-1,-1,-1,-1,-1,-1,-1,-1,-1,-1,-1,-1,-1,-1,-1,-1,-1,-1,-1,-1,-1,-1,-1,-1,-1,-1,-1,-1,-1,-1,-1,-1,-1,-1,-1,-1,-1,-1,-1,-1,-1,-1,-1,-1,-1,-1,-1,-1],"split_conditions":[1.3438505E-1,-4.5191556E-1,8.5974604E-1,-7.0123446E-1,-2.7519915E-1,5.070861E-1,1.2420065E0,-7.283501E-1,-5.5086076E-1,-4.3507847E-1,-1.311626E-1,-3.8578592E-2,6.867514E-1,1.0097605E0,1.4432328E0,-7.9935634E-1,1.0060824E0,-6.558667E-1,-1.1286237E0,-5.641571E-1,-3.602231E-1,-7.057728E-1,2.1189104E-1,-1.2856776E-1,6.010252E-1,2.3488522E-1,7.086955E-1,9.989954E-1,1.2593927E0,1.3188776E0,2.134863E0,-2.490117E3,-7.055406E-1,-6.83539E-1,1.1607635E0,-2.1211504E3,-3.480722E-1,-7.507545E-2,-5.903502E-1,-3.6979735E-1,-4.9387985E-1,-6.1961913E-1,1.403121E0,-8.3597794E-2,-3.267977E-1,-7.7269264E-3,9.6582925E-1,-9.1289856E-2,6.1092454E-1,3.6157018E-1,1.4266988E0,1.4022753E0,6.869636E-1,3.8344614E-2,9.6582925E-1,1.9015205E0,-7.995855E-1,1.9015205E0,-7.83818E-1,5.3112936E-1,1.2966378E0,4.4477582E-2,1.6565069E0,-2.0977615E3,-2.47465E3,-2.3622898E3,-2.2551648E3,8.833838E2,-1.0940482E3,-1.9736569E3,-1.6938647E3,-1.3996154E3,-9.331776E2,-2.0026471E3,-1.6661008E3,-1.6264279E3,-2.275202E3,-1.591682E3,-1.2529386E3,3.257006E3,-1.1560443E3,-7.151207E2,1.9289275E3,1.2750433E3,3.1563132E3,-9.7797345E2,-2.5002046E2,4.4332718E1,6.124916E2,1.393047E3,2.804288E3,-1.4270294E3,2.7698837E2,6.452497E2,1.1731503E3,1.0981825E3,1.4210339E3,1.8938068E3,2.917656E3,2.1293127E3,3.2853705E2,1.9458569E3,1.6515323E3,-1.1431644E3,2.5928418E3,2.1902693E3,2.8718743E3,3.0853838E3,1.7715819E3,-6.28687E2,2.532262E3,3.49017E3,2.3657842E3,2.9025166E3,5.821332E2,4.099915E3,3.8498823E3,3.3620464E3,3.644347E3,2.9252827E3,4.1049053E3,2.9892883E3,4.1628833E3],"split_indices":[4,11,4,0,11,4,0,11,11,1,1,11,4,4,4,0,8,4,8,1,11,2,0,11,0,6,9,9,6,9,8,0,2,11,8,0,2,2,4,4,4,2,8,11,0,11,0,0,3,4,1,7,8,11,0,7,0,7,7,2,4,8,1,0,0,0,0,0,0,0,0,0,0,0,0,0,0,0,0,0,0,0,0,0,0,0,0,0,0,0,0,0,0,0,0,0,0,0,0,0,0,0,0,0,0,0,0,0,0,0,0,0,0,0,0,0,0,0,0,0,0,0,0],"split_type":[0,0,0,0,0,0,0,0,0,0,0,0,0,0,0,0,0,0,0,0,0,0,0,0,0,0,0,0,0,0,0,0,0,0,0,0,0,0,0,0,0,0,0,0,0,0,0,0,0,0,0,0,0,0,0,0,0,0,0,0,0,0,0,0,0,0,0,0,0,0,0,0,0,0,0,0,0,0,0,0,0,0,0,0,0,0,0,0,0,0,0,0,0,0,0,0,0,0,0,0,0,0,0,0,0,0,0,0,0,0,0,0,0,0,0,0,0,0,0,0,0,0,0],"sum_hessian":[3.79725E5,2.30785E5,1.4894E5,2.08209E5,2.2576E4,2.4116E4,1.24824E5,1.96244E5,1.1965E4,1.0051E4,1.2525E4,1.2454E4,1.1662E4,2.5785E4,9.9039E4,1.87242E5,9.002E3,5.976E3,5.989E3,2.356E3,7.695E3,4.238E3,8.287E3,3.678E3,8.776E3,5.456E3,6.206E3,8.433E3,1.7352E4,2.9122E4,6.9917E4,1.68216E5,1.9026E4,8.993E3,9E0,2.401E3,3.575E3,5.44E2,5.445E3,3.68E2,1.988E3,3.557E3,4.138E3,7.5E1,4.163E3,7.869E3,4.18E2,7.59E2,2.919E3,8.304E3,4.72E2,2.148E3,3.308E3,3.76E3,2.446E3,6.543E3,1.89E3,1.6528E4,8.24E2,1.4596E4,1.4526E4,6.4422E4,5.495E3,7.26E2,1.83E4,4.646E3,4.347E3,4E0,5E0,3.376E3,1.99E2,4.72E2,7.2E1,5.35E2,4.91E3,8.8E1,2.8E2,6.24E2,1.364E3,4E0,3.553E3,4.122E3,1.6E1,4.9E1,2.6E1,8.6E2,3.303E3,5.44E3,2.429E3,3.19E2,9.9E1,2.7E1,7.32E2,2.5E3,4.19E2,4.042E3,4.262E3,4.05E2,6.7E1,2.101E3,4.7E1,1.441E3,1.867E3,9E0,3.751E3,2.275E3,1.71E2,6.42E3,1.23E2,3E0,1.887E3,1.5938E4,5.9E2,5.4E2,2.84E2,7.07E3,7.526E3,3.826E3,1.07E4,2.54E2,6.4168E4,1.883E3,3.612E3],"tree_param":{"num_deleted":"0","num_feature":"12","num_nodes":"123","size_leaf_vector":"1"}},{"base_weights":[-4.007354E1,-7.164953E4,1.1386975E5,-7.8603695E4,-6.900716E3,6.1389688E4,1.24995195E5,-8.007039E4,-5.584664E4,-2.4004326E4,1.1261383E4,4.378467E4,8.030975E4,1.0935717E5,1.2975626E5,-8.037535E4,-7.305305E4,-6.1496586E4,-4.779092E4,-3.394662E4,-1.523303E4,-1.2397462E4,1.5547873E4,3.0319756E4,5.054265E4,7.065588E4,8.773163E4,1.1098901E5,7.759182E4,1.2391336E5,1.3171842E5,-2.4137524E3,-2.3373875E3,-7.3139484E4,-2.692104E4,-6.5050055E4,-5.791716E4,-4.7914836E4,9.197299E4,-4.926079E4,-3.0644299E4,-3.6831383E4,-1.1710285E4,1.1185383E5,-1.4035711E4,1.3941994E4,6.228685E4,2.7174021E4,4.501876E4,2.4595805E4,5.192194E4,7.399721E4,6.3795215E4,9.313291E4,8.032069E4,1.0151587E5,1.1428972E5,4.7031996E4,9.707546E4,1.3298862E5,1.2021444E5,1.3262184E5,1.2130213E5,-2.2302976E3,-2.0967097E3,-9.700057E2,8.951809E2,-2.0152722E3,-1.9041189E3,-1.7656763E3,-1.4526305E3,2.6362678E3,-1.4410509E3,3.1226204E3,6.527335E2,-1.3207007E3,-2.2381409E3,-9.2637274E2,2.0329917E3,-9.89887E2,-2.0186615E3,-3.9779312E2,4.2239145E2,-9.7269824E2,3.608044E3,-8.08658E2,-1.3790865E2,4.0264417E2,4.0798076E3,1.3814508E3,2.4283677E3,5.3306274E2,9.31473E2,1.3907157E3,1.777474E2,1.01465295E3,-6.9783435E2,1.4599517E3,1.9179235E3,-3.0870416E2,2.2291484E3,1.8517494E3,2.7981636E3,2.2723513E3,2.8514797E3,2.5398262E3,2.2847E3,3.176209E3,2.6037043E3,3.5612405E3,3.168096E3,3.0800176E3,6.09058E2,1.4145004E3,2.9969346E3,1.7480505E3,4.0004272E3,3.6325762E3,2.932535E3,1.9599951E3,3.9805884E3,2.7204055E3,3.9433064E3],"categories":[],"categories_nodes":[],"categories_segments":[],"categories_sizes":[],"default_left":[0,0,0,0,0,0,0,0,0,0,0,0,0,0,0,0,0,0,0,0,0,0,0,0,0,0,0,0,0,0,0,0,0,0,0,0,0,0,0,0,0,0,0,0,0,0,0,0,0,0,0,0,0,0,0,0,0,0,0,0,0,0,0,0,0,0,0,0,0,0,0,0,0,0,0,0,0,0,0,0,0,0,0,0,0,0,0,0,0,0,0,0,0,0,0,0,0,0,0,0,0,0,0,0,0,0,0,0,0,0,0,0,0,0,0,0,0,0,0,0,0,0,0],"id":11,"left_children":[1,3,5,7,9,11,13,15,17,19,21,23,25,27,29,31,33,35,37,39,41,43,45,47,49,51,53,55,57,59,61,-1,-1,63,65,67,69,71,73,75,77,79,81,83,85,87,89,91,93,95,97,99,101,103,105,107,109,111,113,115,117,119,121,-1,-1,-1,-1,-1,-1,-1,-1,-1,-1,-1,-1,-1,-1,-1,-1,-1,-1,-1,-1,-1,-1,-1,-1,-1,-1,-1,-1,-1,-1,-1,-1,-1,-1,-1,-1,-1,-1,-1,-1,-1,-1,-1,-1,-1,-1,-1,-1,-1,-1,-1,-1,-1,-1,-1,-1,-1,-1,-1,-1],"loss_changes":[3.0956954E15,1.04923635E14,8.552246E13,7.0190503E12,7.020987E12,8.53186E12,8.984803E12,4.171487E11,5.770985E11,1.0145707E12,1.1118868E12,1.2065251E12,8.7867313E11,1.4539806E12,1.04595875E12,3.248069E10,3.0899438E10,9.1458896E10,9.54676E10,2.7436253E11,4.702335E11,3.439486E11,6.957365E11,2.0403218E11,3.150174E11,1.1844924E11,2.7184123E11,8.2748585E11,8.182998E11,7.6645034E11,6.3632625E11,0E0,0E0,2.6986152E10,6.1874637E9,8.324645E9,3.0481056E10,8.997516E10,1.9883459E9,1.24939665E11,1.0583933E11,9.905268E10,2.1278058E11,3.0607278E10,2.0242596E11,5.6829765E11,8.959348E10,1.3280477E11,4.059064E10,1.9859055E11,3.2507534E11,9.43257E10,1.0207258E11,1.2708951E11,4.684828E10,4.363586E11,7.509482E11,8.00968E11,1.1407511E11,1.7299826E11,3.1254276E11,2.6789859E11,1.7103952E12,0E0,0E0,0E0,0E0,0E0,0E0,0E0,0E0,0E0,0E0,0E0,0E0,0E0,0E0,0E0,0E0,0E0,0E0,0E0,0E0,0E0,0E0,0E0,0E0,0E0,0E0,0E0,0E0,0E0,0E0,0E0,0E0,0E0,0E0,0E0,0E0,0E0,0E0,0E0,0E0,0E0,0E0,0E0,0E0,0E0,0E0,0E0,0E0,0E0,0E0,0E0,0E0,0E0,0E0,0E0,0E0,0E0,0E0,0E0,0E0],"parents":[2147483647,0,0,1,1,2,2,3,3,4,4,5,5,6,6,7,7,8,8,9,9,10,10,11,11,12,12,13,13,14,14,15,15,16,16,17,17,18,18,19,19,20,20,21,21,22,22,23,23,24,24,25,25,26,26,27,27,28,28,29,29,30,30,33,33,34,34,35,35,36,36,37,37,38,38,39,39,40,40,41,41,42,42,43,43,44,44,45,45,46,46,47,47,48,48,49,49,50,50,51,51,52,52,53,53,54,54,55,55,56,56,57,57,58,58,59,59,60,60,61,61,62,62],"right_children":[2,4,6,8,10,12,14,16,18,20,22,24,26,28,30,32,34,36,38,40,42,44,46,48,50,52,54,56,58,60,62,-1,-1,64,66,68,70,72,74,76,78,80,82,84,86,88,90,92,94,96,98,100,102,104,106,108,110,112,114,116,118,120,122,-1,-1,-1,-1,-1,-1,-1,-1,-1,-1,-1,-1,-1,-1,-1,-1,-1,-1,-1,-1,-1,-1,-1,-1,-1,-1,-1,-1,-1,-1,-1,-1,-1,-1,-1,-1,-1,-1,-1,-1,-1,-1,-1,-1,-1,-1,-1,-1,-1,-1,-1,-1,-1,-1,-1,-1,-1,-1,-1,-1],"split_conditions":[2.0059854E-1,-4.1312787E-1,9.3848705E-1,-6.795858E-1,-2.0195962E-1,6.112531E-1,1.2944689E0,-7.079694E-1,-5.0172853E-1,-3.1859812E-1,-1.9967628E-1,2.2697207E-2,7.813222E-1,1.2593927E0,1.465743E0,-6.82953E-1,8.1284237E-1,-5.6243056E-1,2.1189104E-1,-4.3480432E-1,-3.267977E-1,-5.6784374E-1,3.997702E-1,6.455322E-1,-2.1426663E0,9.08583E-1,5.1264334E-1,1.0532951E0,1.5560787E0,5.3112936E-1,2.134863E0,-2.4137524E3,-2.3373875E3,-5.963819E-1,-4.5953563E-1,-5.96444E-1,-2.690022E-1,-5.963819E-1,9.1210485E-1,-3.0691856E-1,2.1189104E-1,6.869636E-1,4.8019183E-1,1.9489382E-1,-2.94448E-1,1.7208383E0,8.141356E-1,-6.816651E-2,2.8097048E0,-2.3179154E0,5.4247653E-1,3.8344614E-2,8.8162553E-1,7.43552E-1,1.1009145E0,1.0622368E0,1.2307737E0,9.200894E-1,7.43552E-1,-1.5655891E0,1.48279E0,-1.8960255E0,2.160204E0,-2.2302976E3,-2.0967097E3,-9.700057E2,8.951809E2,-2.0152722E3,-1.9041189E3,-1.7656763E3,-1.4526305E3,2.6362678E3,-1.4410509E3,3.1226204E3,6.527335E2,-1.3207007E3,-2.2381409E3,-9.2637274E2,2.0329917E3,-9.89887E2,-2.0186615E3,-3.9779312E2,4.2239145E2,-9.7269824E2,3.608044E3,-8.08658E2,-1.3790865E2,4.0264417E2,4.0798076E3,1.3814508E3,2.4283677E3,5.3306274E2,9.31473E2,1.3907157E3,1.777474E2,1.01465295E3,-6.9783435E2,1.4599517E3,1.9179235E3,-3.0870416E2,2.2291484E3,1.8517494E3,2.7981636E3,2.2723513E3,2.8514797E3,2.5398262E3,2.2847E3,3.176209E3,2.6037043E3,3.5612405E3,3.168096E3,3.0800176E3,6.09058E2,1.4145004E3,2.9969346E3,1.7480505E3,4.0004272E3,3.6325762E3,2.932535E3,1.9599951E3,3.9805884E3,2.7204055E3,3.9433064E3],"split_indices":[4,11,4,0,11,4,5,11,11,11,4,11,4,6,0,2,9,11,0,0,0,0,0,3,6,9,9,4,6,2,8,0,0,3,4,11,2,3,0,5,0,8,3,6,4,11,0,11,6,6,11,11,0,0,9,9,9,5,0,6,7,6,8,0,0,0,0,0,0,0,0,0,0,0,0,0,0,0,0,0,0,0,0,0,0,0,0,0,0,0,0,0,0,0,0,0,0,0,0,0,0,0,0,0,0,0,0,0,0,0,0,0,0,0,0,0,0,0,0,0,0,0,0],"split_type":[0,0,0,0,0,0,0,0,0,0,0,0,0,0,0,0,0,0,0,0,0,0,0,0,0,0,0,0,0,0,0,0,0,0,0,0,0,0,0,0,0,0,0,0,0,0,0,0,0,0,0,0,0,0,0,0,0,0,0,0,0,0,0,0,0,0,0,0,0,0,0,0,0,0,0,0,0,0,0,0,0,0,0,0,0,0,0,0,0,0,0,0,0,0,0,0,0,0,0,0,0,0,0,0,0,0,0,0,0,0,0,0,0,0,0,0,0,0,0,0,0,0,0],"sum_hessian":[3.79511E5,2.33022E5,1.46489E5,2.10422E5,2.26E4,2.5624E4,1.20865E5,1.97679E5,1.2743E4,1.1639E4,1.0961E4,1.3275E4,1.2349E4,2.8215E4,9.265E4,1.89436E5,8.243E3,7.486E3,5.257E3,5.454E3,6.185E3,1.681E3,9.28E3,4.438E3,8.837E3,5.372E3,6.977E3,2.6834E4,1.381E3,2.3308E4,6.9342E4,1.83224E5,6.212E3,8.227E3,1.6E1,3.748E3,3.738E3,5.253E3,4E0,9.65E2,4.489E3,8.66E2,5.319E3,2.1E1,1.66E3,8.973E3,3.07E2,3.658E3,7.8E2,4.47E2,8.39E3,3.606E3,1.766E3,4.029E3,2.948E3,6.942E3,1.9892E4,5.39E2,8.42E2,6.739E3,1.6569E4,6.3797E4,5.545E3,5.987E3,2.24E3,1.5E1,1E0,1.58E3,2.168E3,3.397E3,3.41E2,4E0,5.249E3,3E0,1E0,8.02E2,1.63E2,4.479E3,1E1,7.71E2,9.5E1,5.018E3,3.01E2,1E0,2E1,7E2,9.6E2,8.936E3,3.7E1,1.66E2,1.41E2,1.069E3,2.589E3,7.54E2,2.6E1,3.75E2,7.2E1,6.604E3,1.786E3,1.3E1,3.593E3,1.653E3,1.13E2,4.04E2,3.625E3,1.434E3,1.514E3,5.352E3,1.59E3,1.3177E4,6.715E3,1.74E2,3.65E2,4.6E1,7.96E2,3.3E1,6.706E3,1.5946E4,6.23E2,6.2E1,6.3735E4,1.382E3,4.163E3],"tree_param":{"num_deleted":"0","num_feature":"12","num_nodes":"123","size_leaf_vector":"1"}},{"base_weights":[2.0177485E1,-7.038941E4,1.0902989E5,-7.649663E4,-1.2192789E4,5.3411363E4,1.2054186E5,-7.774961E4,-5.7089598E4,-3.0225338E4,3.287025E3,3.4757145E4,7.081143E4,1.0174122E5,1.25040664E5,-7.8005945E4,-7.2447914E4,-6.2817496E4,-5.063745E4,-3.7345188E4,-2.1933453E4,1.4629006E3,5.2370656E4,1.9319398E4,4.1192793E4,6.1944984E4,8.075075E4,1.0823423E5,9.437683E4,1.1866851E5,1.2762074E5,-2.3430037E3,-7.717087E4,-7.252292E4,-9.91768E3,-6.591698E4,-6.0146332E4,3.1126494E3,-5.075866E4,-6.9574266E4,-3.5985895E4,-3.9169773E4,-1.8722047E4,-2.5028338E4,4.398168E3,3.9727293E4,8.046401E4,1.6806695E4,3.5837594E4,3.9974902E4,6.77369E4,5.741442E4,6.761269E4,8.6290164E4,7.4763125E4,9.9846234E4,1.1369447E5,9.739648E4,7.550789E4,1.24930914E5,1.13417836E5,1.2907993E5,1.2147629E5,-1.9687256E3,-2.3287637E3,-2.2228438E3,-2.124986E3,7.1761957E2,-1.1251545E3,-1.7403502E3,-1.9851864E3,-1.827845E3,-1.5452395E3,-1.1983492E3,-1.5547158E3,-1.3410565E3,-2.3733528E3,-1.1911956E3,-9.326299E2,-1.0757283E3,-2.233128E3,-5.739225E2,2.3022512E3,3.6816057E3,-8.095954E2,-1.7410075E2,3.1726248E2,1.3967152E3,4.798287E2,1.3607751E3,2.883787E3,1.3748148E2,6.0529376E2,1.0281161E3,1.8223177E3,1.0405782E3,1.3474084E3,1.8671598E3,2.8640898E3,1.7010797E3,2.9918518E3,-1.1989216E3,2.0381749E3,1.9536726E3,2.629361E3,-1.713177E3,2.250075E3,2.1611013E3,3.0357456E3,3.4573591E3,2.2860012E3,3.2717703E3,2.7616858E3,1.4319858E3,2.7522532E3,2.8839854E3,3.776584E3,3.4891663E3,3.2492212E3,2.5482612E3,3.875811E3,1.1770739E3,3.722013E3],"categories":[],"categories_nodes":[],"categories_segments":[],"categories_sizes":[],"default_left":[0,0,0,0,0,0,0,0,0,0,0,0,0,0,0,0,0,0,0,0,0,0,0,0,0,0,0,0,0,0,0,0,0,0,0,0,0,0,0,0,0,0,0,0,0,0,0,0,0,0,0,0,0,0,0,0,0,0,0,0,0,0,0,0,0,0,0,0,0,0,0,0,0,0,0,0,0,0,0,0,0,0,0,0,0,0,0,0,0,0,0,0,0,0,0,0,0,0,0,0,0,0,0,0,0,0,0,0,0,0,0,0,0,0,0,0,0,0,0,0,0,0,0],"id":12,"left_children":[1,3,5,7,9,11,13,15,17,19,21,23,25,27,29,31,33,35,37,39,41,43,45,47,49,51,53,55,57,59,61,-1,63,65,67,69,71,-1,73,75,77,79,81,83,85,87,89,91,93,95,97,99,101,103,105,107,109,111,113,115,117,119,121,-1,-1,-1,-1,-1,-1,-1,-1,-1,-1,-1,-1,-1,-1,-1,-1,-1,-1,-1,-1,-1,-1,-1,-1,-1,-1,-1,-1,-1,-1,-1,-1,-1,-1,-1,-1,-1,-1,-1,-1,-1,-1,-1,-1,-1,-1,-1,-1,-1,-1,-1,-1,-1,-1,-1,-1,-1,-1,-1,-1],"loss_changes":[2.9110988E15,8.190167E13,9.5293245E13,5.0668534E12,6.1096476E12,8.2828864E12,1.0417443E13,2.6051661E11,4.6440173E11,5.960452E11,1.0544624E12,1.2233201E12,1.1587981E12,1.1286033E12,1.6208133E12,8.724152E9,4.172074E10,5.1491373E10,1.1670861E11,2.357288E11,2.5793056E11,8.832176E11,1.4669552E11,1.4993746E11,2.783812E11,1.7545193E11,1.9995086E11,5.680262E11,6.289191E11,9.2925644E11,6.191464E11,0E0,9.474094E10,1.8765316E10,1.2099317E10,2.4127734E9,2.1234713E10,0E0,6.647867E10,4.8414654E10,9.389736E10,8.295468E10,1.5523172E11,3.3110878E11,6.444138E11,4.6748795E10,6.7116466E10,1.2966206E11,1.6574448E10,2.1566272E11,5.2001112E10,1.1144161E11,1.1148355E11,8.6834676E10,9.8919514E10,1.7962526E11,4.3634183E11,5.8928293E11,6.922552E11,3.475568E11,2.1786893E11,2.762872E11,2.8941704E12,0E0,0E0,0E0,0E0,0E0,0E0,0E0,0E0,0E0,0E0,0E0,0E0,0E0,0E0,0E0,0E0,0E0,0E0,0E0,0E0,0E0,0E0,0E0,0E0,0E0,0E0,0E0,0E0,0E0,0E0,0E0,0E0,0E0,0E0,0E0,0E0,0E0,0E0,0E0,0E0,0E0,0E0,0E0,0E0,0E0,0E0,0E0,0E0,0E0,0E0,0E0,0E0,0E0,0E0,0E0,0E0,0E0,0E0,0E0,0E0],"parents":[2147483647,0,0,1,1,2,2,3,3,4,4,5,5,6,6,7,7,8,8,9,9,10,10,11,11,12,12,13,13,14,14,15,15,16,16,17,17,18,18,19,19,20,20,21,21,22,22,23,23,24,24,25,25,26,26,27,27,28,28,29,29,30,30,32,32,33,33,34,34,35,35,36,36,38,38,39,39,40,40,41,41,42,42,43,43,44,44,45,45,46,46,47,47,48,48,49,49,50,50,51,51,52,52,53,53,54,54,55,55,56,56,57,57,58,58,59,59,60,60,61,61,62,62],"right_children":[2,4,6,8,10,12,14,16,18,20,22,24,26,28,30,32,34,36,38,40,42,44,46,48,50,52,54,56,58,60,62,-1,64,66,68,70,72,-1,74,76,78,80,82,84,86,88,90,92,94,96,98,100,102,104,106,108,110,112,114,116,118,120,122,-1,-1,-1,-1,-1,-1,-1,-1,-1,-1,-1,-1,-1,-1,-1,-1,-1,-1,-1,-1,-1,-1,-1,-1,-1,-1,-1,-1,-1,-1,-1,-1,-1,-1,-1,-1,-1,-1,-1,-1,-1,-1,-1,-1,-1,-1,-1,-1,-1,-1,-1,-1,-1,-1,-1,-1,-1,-1,-1,-1],"split_conditions":[1.3438505E-1,-4.3944034E-1,8.9573616E-1,-7.0123446E-1,-2.6027367E-1,5.070861E-1,1.2239244E0,-7.283501E-1,-5.3907186E-1,-3.4730825E-1,2.1189104E-1,-3.8578592E-2,7.3509824E-1,2.3488522E-1,1.4546664E0,-7.9935634E-1,9.8244524E-1,-6.4051485E-1,-6.1961913E-1,-5.6784374E-1,-3.6151657E-1,-2.94448E-1,8.141356E-1,6.1092454E-1,6.488906E-1,6.3674456E-1,2.7917844E-1,1.0366727E0,1.2593927E0,1.2110502E0,1.9619496E0,-2.3430037E3,-7.055406E-1,-6.83539E-1,1.2157049E0,-1.2656007E0,-3.445598E-1,3.1126494E3,-1.1286237E0,-3.6979735E-1,-3.8713792E-1,6.869636E-1,1.5009071E0,-5.657801E-1,-1.7334911E-1,9.099789E-1,-1.3519222E-1,-1.2856776E-1,1.1993107E0,3.6157018E-1,1.4546664E0,1.1265675E0,2.2697207E-2,-2.1426663E0,1.15540124E-1,7.43552E-1,1.4960607E0,8.1284237E-1,1.5560787E0,-1.254543E-1,1.6288608E0,2.7802635E-3,1.5988595E0,-1.9687256E3,-2.3287637E3,-2.2228438E3,-2.124986E3,7.1761957E2,-1.1251545E3,-1.7403502E3,-1.9851864E3,-1.827845E3,-1.5452395E3,-1.1983492E3,-1.5547158E3,-1.3410565E3,-2.3733528E3,-1.1911956E3,-9.326299E2,-1.0757283E3,-2.233128E3,-5.739225E2,2.3022512E3,3.6816057E3,-8.095954E2,-1.7410075E2,3.1726248E2,1.3967152E3,4.798287E2,1.3607751E3,2.883787E3,1.3748148E2,6.0529376E2,1.0281161E3,1.8223177E3,1.0405782E3,1.3474084E3,1.8671598E3,2.8640898E3,1.7010797E3,2.9918518E3,-1.1989216E3,2.0381749E3,1.9536726E3,2.629361E3,-1.713177E3,2.250075E3,2.1611013E3,3.0357456E3,3.4573591E3,2.2860012E3,3.2717703E3,2.7616858E3,1.4319858E3,2.7522532E3,2.8839854E3,3.776584E3,3.4891663E3,3.2492212E3,2.5482612E3,3.875811E3,1.1770739E3,3.722013E3],"split_indices":[4,11,4,0,11,4,5,11,11,11,0,11,4,6,0,0,8,4,2,0,0,4,0,3,0,4,6,0,6,10,9,0,2,11,8,10,3,0,8,4,11,8,8,5,11,2,8,11,3,4,0,0,11,6,11,0,11,9,6,10,9,8,10,0,0,0,0,0,0,0,0,0,0,0,0,0,0,0,0,0,0,0,0,0,0,0,0,0,0,0,0,0,0,0,0,0,0,0,0,0,0,0,0,0,0,0,0,0,0,0,0,0,0,0,0,0,0,0,0,0,0,0,0],"split_type":[0,0,0,0,0,0,0,0,0,0,0,0,0,0,0,0,0,0,0,0,0,0,0,0,0,0,0,0,0,0,0,0,0,0,0,0,0,0,0,0,0,0,0,0,0,0,0,0,0,0,0,0,0,0,0,0,0,0,0,0,0,0,0,0,0,0,0,0,0,0,0,0,0,0,0,0,0,0,0,0,0,0,0,0,0,0,0,0,0,0,0,0,0,0,0,0,0,0,0,0,0,0,0,0,0,0,0,0,0,0,0,0,0,0,0,0,0,0,0,0,0,0,0],"sum_hessian":[3.79278E5,2.30438E5,1.4884E5,2.08552E5,2.1886E4,2.5525E4,1.23315E5,1.95901E5,1.2651E4,1.0109E4,1.1777E4,1.232E4,1.3205E4,2.3815E4,9.95E4,1.86853E5,9.048E3,6.697E3,5.954E3,5.437E3,4.672E3,1.1356E4,4.21E2,3.626E3,8.694E3,6.983E3,6.222E3,1.2649E4,1.1166E4,2.869E4,7.081E4,1.67832E5,1.9021E4,9.037E3,1.1E1,3.089E3,3.608E3,4E0,5.95E3,2.18E2,5.219E3,7.32E2,3.94E3,1.132E3,1.0224E4,2.92E2,1.29E2,3.149E3,4.77E2,8.315E3,3.79E2,3.887E3,3.096E3,3.225E3,2.997E3,4.995E3,7.654E3,9.622E3,1.544E3,1.3074E4,1.5616E4,5.7205E4,1.3605E4,7.26E2,1.8295E4,4.66E3,4.377E3,5E0,6E0,1.04E2,2.985E3,3.303E3,3.05E2,5.37E2,5.413E3,6.2E1,1.56E2,2.962E3,2.257E3,6.71E2,6.1E1,3.924E3,1.6E1,1.4E1,1.118E3,3.856E3,6.368E3,2.26E2,6.6E1,4.1E1,8.8E1,6.81E2,2.468E3,4.51E2,2.6E1,4.019E3,4.296E3,3.19E2,6E1,3.825E3,6.2E1,9E0,3.087E3,1.97E2,3.028E3,5E0,2.992E3,2.33E2,4.762E3,7.348E3,3.06E2,3.016E3,6.606E3,5.71E2,9.73E2,4.23E2,1.2651E4,9.964E3,5.652E3,1.49E2,5.7056E4,4.16E2,1.3189E4],"tree_param":{"num_deleted":"0","num_feature":"12","num_nodes":"123","size_leaf_vector":"1"}},{"base_weights":[-6.3406467E1,-6.829547E4,1.0574656E5,-7.431344E4,-1.2921176E4,4.8574113E4,1.1634626E5,-7.541633E4,-5.620542E4,-3.16362E4,2.223985E3,3.254251E4,6.4467145E4,9.658269E4,1.20914266E5,-7.567556E4,-7.047409E4,-6.1612473E4,-5.0746254E4,-4.4861723E4,-2.7587668E4,-3.5801367E3,1.797737E4,1.8765775E4,3.884799E4,5.5764207E4,7.210367E4,1.00381086E5,8.559568E4,1.1387758E5,1.237185E5,-7.575705E4,-7.492626E4,-7.075907E4,-5.615947E4,-6.461237E4,-5.9579777E4,-4.0411707E4,-5.179902E4,-6.4155E4,-4.1294676E4,-3.4827758E4,-2.1347441E4,-2.3965299E4,-5.0766794E2,2.1345707E4,-5.102715E4,1.6394832E4,3.4649516E4,3.725944E4,6.1152574E4,5.962114E4,4.9698348E4,-3.5090773E4,7.235106E4,1.0310563E5,7.5061484E4,7.664891E4,9.0660195E4,1.19972766E5,1.0742137E5,1.2454005E5,1.1443986E5,-2.2670427E3,-2.2781836E3,-1.9013856E3,-2.261869E3,-2.1725586E3,-2.068612E3,-2.2901501E3,-3.3947415E2,-1.7002717E3,-1.9449706E3,-1.8018228E3,-1.5364572E3,-1.2697113E3,-8.397818E2,-1.8445979E3,-1.5206992E3,-1.7340945E3,-2.308803E3,-1.4666349E3,-1.1337336E3,1.598105E3,-1.0541537E3,-6.546024E2,1.1548212E3,-2.3677957E2,-9.7929175E2,-7.4604355E1,6.533042E2,-1.5200034E2,8.5570544E2,-1.6758586E3,-1.0795707E3,1.436013E2,5.8778186E2,9.4689557E2,1.4683047E3,2.158681E3,1.0989354E3,1.893458E3,-3.0145395E2,1.0216935E3,1.83929E3,1.3930183E3,2.2189153E3,-1.7688E3,2.4011843E3,2.2926392E3,1.9829305E3,3.1377715E3,2.0565251E3,1.3637717E3,2.7132815E3,2.4277517E3,2.1701453E3,2.658261E3,3.0739395E3,2.6528562E3,3.6147102E3,2.941357E3,3.2763333E3,2.776621E3,3.7411294E3,2.740407E3,3.814509E3],"categories":[],"categories_nodes":[],"categories_segments":[],"categories_sizes":[],"default_left":[0,0,0,0,0,0,0,0,0,0,0,0,0,0,0,0,0,0,0,0,0,0,0,0,0,0,0,0,0,0,0,0,0,0,0,0,0,0,0,0,0,0,0,0,0,0,0,0,0,0,0,0,0,0,0,0,0,0,0,0,0,0,0,0,0,0,0,0,0,0,0,0,0,0,0,0,0,0,0,0,0,0,0,0,0,0,0,0,0,0,0,0,0,0,0,0,0,0,0,0,0,0,0,0,0,0,0,0,0,0,0,0,0,0,0,0,0,0,0,0,0,0,0,0,0,0,0],"id":13,"left_children":[1,3,5,7,9,11,13,15,17,19,21,23,25,27,29,31,33,35,37,39,41,43,45,47,49,51,53,55,57,59,61,63,65,67,69,71,73,75,77,79,81,83,85,87,89,91,93,95,97,99,101,103,105,107,109,111,113,115,117,119,121,123,125,-1,-1,-1,-1,-1,-1,-1,-1,-1,-1,-1,-1,-1,-1,-1,-1,-1,-1,-1,-1,-1,-1,-1,-1,-1,-1,-1,-1,-1,-1,-1,-1,-1,-1,-1,-1,-1,-1,-1,-1,-1,-1,-1,-1,-1,-1,-1,-1,-1,-1,-1,-1,-1,-1,-1,-1,-1,-1,-1,-1,-1,-1,-1,-1],"loss_changes":[2.7405215E15,7.6903E13,9.017915E13,4.1528307E12,6.41238E12,5.928674E12,1.1322205E13,2.4595399E11,3.4973365E11,5.4057343E11,1.1434535E12,1.0060814E12,7.7276276E11,9.75226E11,1.9980993E12,5.7042534E9,3.5974545E10,3.2742834E10,6.268597E10,1.6045415E11,3.4939968E11,5.723889E11,7.8368276E11,1.3654989E11,2.7940566E11,1.24942025E11,1.6754147E11,1.2002924E12,2.6777276E11,1.1310192E12,5.4150142E11,1.3421773E8,9.479966E10,2.3760732E10,1.7649559E11,5.3582234E8,1.1367612E10,1.1993809E10,5.4901342E10,2.548328E10,5.1438158E10,1.0002812E11,1.1864074E11,1.6669337E11,3.5037368E11,6.0889576E11,9.407234E9,1.1758168E11,1.9277939E10,1.5919481E11,7.428034E10,1.4195832E11,1.6536725E11,4.594018E10,1.5295788E11,8.049708E11,7.722112E11,3.466173E10,8.4544586E10,2.3332074E11,2.263582E11,3.4024194E11,1.7324908E12,0E0,0E0,0E0,0E0,0E0,0E0,0E0,0E0,0E0,0E0,0E0,0E0,0E0,0E0,0E0,0E0,0E0,0E0,0E0,0E0,0E0,0E0,0E0,0E0,0E0,0E0,0E0,0E0,0E0,0E0,0E0,0E0,0E0,0E0,0E0,0E0,0E0,0E0,0E0,0E0,0E0,0E0,0E0,0E0,0E0,0E0,0E0,0E0,0E0,0E0,0E0,0E0,0E0,0E0,0E0,0E0,0E0,0E0,0E0,0E0,0E0,0E0,0E0,0E0],"parents":[2147483647,0,0,1,1,2,2,3,3,4,4,5,5,6,6,7,7,8,8,9,9,10,10,11,11,12,12,13,13,14,14,15,15,16,16,17,17,18,18,19,19,20,20,21,21,22,22,23,23,24,24,25,25,26,26,27,27,28,28,29,29,30,30,31,31,32,32,33,33,34,34,35,35,36,36,37,37,38,38,39,39,40,40,41,41,42,42,43,43,44,44,45,45,46,46,47,47,48,48,49,49,50,50,51,51,52,52,53,53,54,54,55,55,56,56,57,57,58,58,59,59,60,60,61,61,62,62],"right_children":[2,4,6,8,10,12,14,16,18,20,22,24,26,28,30,32,34,36,38,40,42,44,46,48,50,52,54,56,58,60,62,64,66,68,70,72,74,76,78,80,82,84,86,88,90,92,94,96,98,100,102,104,106,108,110,112,114,116,118,120,122,124,126,-1,-1,-1,-1,-1,-1,-1,-1,-1,-1,-1,-1,-1,-1,-1,-1,-1,-1,-1,-1,-1,-1,-1,-1,-1,-1,-1,-1,-1,-1,-1,-1,-1,-1,-1,-1,-1,-1,-1,-1,-1,-1,-1,-1,-1,-1,-1,-1,-1,-1,-1,-1,-1,-1,-1,-1,-1,-1,-1,-1,-1,-1,-1,-1],"split_conditions":[1.3438505E-1,-4.5191556E-1,8.421249E-1,-7.0123446E-1,-2.7519915E-1,4.80467E-1,1.2071273E0,-7.3461425E-1,-5.5086076E-1,-4.3507847E-1,-7.7269264E-3,-3.8578592E-2,6.628062E-1,9.419767E-1,1.4221472E0,-7.9935634E-1,-5.261518E-1,-6.558667E-1,-1.1303838E0,-5.641571E-1,-3.602231E-1,-2.94448E-1,1.4022753E0,6.1092454E-1,5.48584E-1,7.527263E-1,3.8344614E-2,9.232835E-1,9.981853E-1,1.3032942E0,2.1283388E0,-5.3929925E-1,-7.055406E-1,-7.458124E-1,5.6615067E-1,-1.2656007E0,-3.480722E-1,-5.0637335E-1,-5.903502E-1,1.2187543E-2,-4.9387985E-1,-5.5576193E-1,1.3242812E0,-6.679645E-1,4.9819455E-1,-1.386287E-1,3.0222358E-2,-1.2856776E-1,1.0019712E0,-7.058054E-1,1.3990225E0,-2.1426663E0,6.31588E-1,8.4742606E-1,